{"basis": "square1h", "activation": "relu", "model_pov": "sidemove", "layers": [{"W": [[0.055215686559677124, -0.0006684463587589562, 0.07965773344039917, -0.09837164729833603, -0.0006283465772867203, 0.04546276107430458, 0.054287929087877274, 0.0738641545176506, -0.10254690796136856, -0.08984708786010742, 0.01678248681128025, -0.017021384090185165, -0.09948039054870605, -0.0411858893930912, -0.08936069905757904, -0.06089261546730995, -0.04829155653715134, -0.08221220225095749, -0.045472219586372375, -0.04244767501950264, 0.06788196414709091, 0.0680948868393898, 0.09964431822299957, -0.09695509076118469, -0.02219729870557785, -0.07763443887233734, 0.04925588518381119, -0.04926944151520729, -0.09038510173559189, -0.11791274696588516, -0.11135346442461014, 0.098139688372612, -0.07964679598808289, 0.010996971279382706, 0.0239705890417099, 0.027924852445721626, -0.07345036417245865, -0.09510058164596558, -0.04031167924404144, 0.03656022250652313, 0.019516853615641594, 0.03123311698436737, 0.047183502465486526, 0.09654871374368668, -0.10779263824224472, 0.07164977490901947, -0.0301352571696043, 0.04287775605916977, 0.1031624898314476, -0.05089670419692993, -0.06288743764162064, -0.0912265032529831, 0.01558761391788721, -0.06157717481255531, 0.11278503388166428, -0.07260307669639587, -0.037353239953517914, -0.12057998031377792, -0.07561266422271729, -0.12129318714141846, -0.05143505334854126, 0.0972098708152771, -0.009695617482066154, -0.11491575092077255, 0.025076236575841904, -0.03891422599554062, 0.11202994734048843, -0.11446443200111389, -0.0003456550184637308, 0.08426270633935928, 0.12530142068862915, 0.0950503721833229, -0.07633411884307861, -0.029576510190963745, -0.11905669420957565, 0.06413819640874863, -0.023246951401233673, 0.112131766974926, 0.03305571898818016, -0.06618686020374298, -0.08799973875284195, 0.055134549736976624, -0.012695524841547012, 0.0840616300702095, -0.07607396692037582, -0.11532025784254074, 0.11114037781953812, 0.05192967876791954, 0.0861152932047844, -0.0879461020231247, 0.01806318387389183, -0.06229888275265694, 0.10945804417133331, 0.05647959187626839, -0.030130553990602493, -0.11063827574253082, -0.032318007200956345, 0.0522090382874012, 0.03603820502758026, -0.06844247877597809, -0.08587656915187836, -0.09420103579759598, 0.07719969004392624, -0.014887973666191101, -0.02106514200568199, -0.02292991429567337, 0.052891068160533905, 0.0053604175336658955, 0.05166313424706459, 0.10874724388122559, 0.016424745321273804, 0.09006112068891525, 0.0677344873547554, -0.1041073352098465, 0.06323032826185226, 0.013721557334065437, -0.005903061479330063, 0.04554404318332672, -0.03841101750731468, -0.021055586636066437, -0.060769543051719666, 0.03757607936859131, -0.09315797686576843, 0.05639677494764328, -0.0013889241963624954, 0.0533381924033165, 0.08786333352327347, 0.039787407964468, 0.03340011462569237, 0.05898173525929451, 0.08614321053028107, 0.05207711085677147, 0.0068579199723899364, -0.09533204138278961, -0.09649765491485596, 0.008476457558572292, 0.06196342781186104, 0.10854677110910416, 0.039977166801691055, 0.0629948079586029, -0.11791696399450302, 0.002258767606690526, -0.08413294702768326, 0.09430074691772461, -0.10814575105905533, 0.10319969058036804, -0.03232427313923836, -0.05222606286406517, -0.04086387902498245, 0.020190080627799034, -0.06415151059627533, -0.10732398927211761, -0.09735103696584702, 0.051012471318244934, -0.10299260169267654, -0.11115778982639313, 0.09210361540317535, -0.11933493614196777, -0.034646306186914444, 0.0757976546883583, -0.0006045671179890633, 0.09579601883888245, 0.06508379429578781, -0.06289783865213394, -0.08938530832529068, 0.03650340437889099, -0.08788184821605682, 0.04424933344125748, -0.03469279780983925, -0.02599565126001835, -0.023582633584737778, -0.10709968954324722, -0.015160953626036644, 0.049028653651475906, 0.013205021619796753, 0.04939316213130951, 0.11600553244352341, 0.02719646506011486, -0.03825303167104721, 0.0018476085970178246, -0.08054026961326599, -0.06145840510725975, -0.0983826294541359, -0.10389068722724915, -0.06281465291976929, 0.11367511749267578, 0.000691309105604887, 0.016681211069226265, 0.11391691863536835, -0.0741862878203392, 0.06575403362512589, -0.0676129087805748, 0.022384105250239372, -0.05952946096658707, -0.0016952380537986755, 0.030854515731334686, 0.03275676444172859, -0.11418981850147247, -0.0738925114274025, -0.006986019667237997, -0.10951236635446548, 0.08713540434837341, 0.11674447357654572, -0.11564826220273972, -0.04232829809188843, 0.04787676781415939, -0.12429358065128326, -0.11764613538980484, -0.023170698434114456, -0.009888089261949062, 0.011204947717487812, -0.0339088998734951, 0.01774546504020691, -0.06404949724674225, -0.08073725551366806, -0.051926374435424805, -0.0392073355615139, 0.09749259054660797, -0.0805780366063118, 0.1231967955827713, 0.042332328855991364, -0.025776296854019165, 0.09986628592014313, -0.013553744181990623, 0.06795977056026459, -0.050895411521196365, 0.09965686500072479, -0.062102798372507095, -0.0717402920126915, -0.00047197361709550023, 0.0002903539570979774, -0.10407780855894089, -0.0628543347120285, 0.08094348013401031, 0.012268053367733955, -0.08998168259859085, -0.04009208455681801, -0.019779546186327934, 0.1181061863899231, -0.03603183850646019, 0.07087521255016327, -0.08926986902952194, -0.03192294389009476, 0.0386183001101017, 0.11049996316432953, -0.09500212222337723, 0.03887558728456497, 0.09575606137514114, -0.07691174000501633, -0.09804967790842056, -0.022022796794772148, -0.06098620593547821, -0.11450529843568802, -0.04549049958586693, 0.004948921035975218, -0.07868967205286026, 0.0618300624191761, 0.10910253971815109, -4.6256755013018847e-05, 0.07356778532266617, 0.11597966402769089, 0.02898893877863884, 0.06019550561904907, 0.04431014135479927, -0.008044905960559845, -0.07787445187568665, -0.011618738994002342, 0.10879836231470108, 0.011380868963897228, 0.10384434461593628, -0.03627422824501991, -0.013949685730040073, -0.11277063190937042, -0.07238501310348511, -0.04878215864300728, -0.011218266561627388, -0.07837098091840744, 0.07688968628644943, -0.07447326928377151, -0.04878024011850357, -0.021508626639842987, 0.012661849148571491, 0.09428257495164871, -0.051081374287605286, 0.027023226022720337, 0.09244637936353683, -0.027002019807696342, -0.01581363007426262, 0.11064863204956055, 0.081231988966465, 0.09025074541568756, 0.024571215733885765, 0.017694808542728424, -0.09010645002126694, -0.1192595362663269, 0.0074331508949398994, 0.10915570706129074, -0.02076069638133049, -0.104557566344738, -0.056696467101573944, -0.0731276422739029, 0.04232387989759445, 0.01932784914970398, -0.11513777077198029, -0.11949294060468674, -0.11947548389434814, -8.793140295892954e-05, -0.015168856829404831, -0.06271404772996902, 0.09849867224693298, 0.0066369641572237015, -0.08174595236778259, 0.07951788604259491, -0.03707045689225197, 0.019455041736364365, 0.01446591317653656, 0.017623839899897575, -0.007034213747829199, 0.017429472878575325, 0.07900536060333252, -0.11235620081424713, -0.0335477814078331, 0.0405057929456234, 0.10954150557518005, 0.05465590953826904, -0.11232514679431915, 0.038386743515729904, -0.026161164045333862, -0.11230924725532532, 0.01732621341943741, -0.0993780717253685, -0.023933451622724533, 0.007020972203463316, -0.09614039957523346, -0.056087058037519455, -0.04428599029779434, -0.059360284358263016, 0.010629123076796532, 0.07267162948846817, -0.060683853924274445, -0.043751440942287445, -0.007009454537183046, -0.11016157269477844, -0.12089971452951431, -0.044825613498687744, 0.029238548129796982, 0.12291853874921799, -0.018977630883455276, -0.013408326543867588, 0.10532321035861969, 0.11136510223150253, -0.10765479505062103, -0.0785851702094078, -0.05296776816248894, 0.0034256165381520987, 0.09060417115688324, 0.01596580632030964, -0.1193157285451889, -0.11965912580490112, 0.0937514454126358, -0.09915856271982193, 0.03360521048307419, 0.0147255165502429, -0.012294481508433819, 0.064340740442276, 0.07446250319480896, -0.11251619458198547, 0.11629895865917206, -0.037283118814229965, 0.0034951691050082445, 0.055613283067941666, -0.12268339842557907, -0.10513442009687424, -0.0551145039498806, 0.07654781639575958, 0.1138492301106453, -0.1172991394996643, -0.04789586365222931, -0.06995459645986557, -0.10823597759008408, -0.053896866738796234, 0.11710988730192184, 0.018774768337607384, 0.06265337765216827, 0.02308603562414646], [-0.006109754089266062, 0.07958406955003738, -0.08281087875366211, -0.05645611137151718, 0.11910942196846008, 0.04427319020032883, -0.03774319961667061, 0.055945027619600296, -0.009343694895505905, 0.06965712457895279, 0.0324096716940403, 0.08997935801744461, -0.10802002251148224, 0.07100788503885269, -0.05429156869649887, -0.06297557055950165, 0.0039582024328410625, -0.09358927607536316, 0.0025827502831816673, -0.025242211297154427, -0.06824401766061783, -0.03671902418136597, -0.020291507244110107, -0.1030164510011673, -0.057296205312013626, 0.04412257671356201, 0.1099918857216835, 0.07983668893575668, -0.09563755244016647, 0.05142327770590782, -0.06324452906847, 0.09802935272455215, -0.029022373259067535, -0.007054664194583893, 0.06918507069349289, -0.06704194098711014, -0.10400794446468353, 0.1254587024450302, 0.11391247063875198, 0.06194325163960457, -0.05777939409017563, -0.08205271512269974, 0.013078419491648674, -0.037259262055158615, -0.021361196413636208, 0.03288906067609787, 0.050333134829998016, 0.09591556340456009, -0.023380720987915993, 0.04290398210287094, 0.09318955987691879, 0.06958082318305969, -0.07605873048305511, -0.0821036845445633, 0.06226731464266777, 0.008033210411667824, -0.08846927434206009, 0.036184847354888916, 0.0726270079612732, -0.11291994154453278, 0.045981984585523605, -0.11389341950416565, 0.07209353893995285, -0.005714442580938339, 0.11522520333528519, -0.04358022287487984, -0.12242350727319717, 0.08845784515142441, -0.10212589800357819, -0.12320088595151901, 0.06748731434345245, 0.041795264929533005, -0.05824129655957222, -0.058926720172166824, -0.08185036480426788, -0.05826626718044281, -0.062350716441869736, 0.09797564148902893, 0.10519450902938843, -0.11347455531358719, 0.04357820004224777, 0.11310476064682007, 0.04408689960837364, 0.04539552330970764, 0.06459609419107437, -0.053721725940704346, 0.005186057183891535, 0.015002849511802197, 0.056403905153274536, 0.08870073407888412, 0.03522148355841637, 0.06685064733028412, 0.10028538107872009, 0.11762656271457672, -0.05989775061607361, -0.039313528686761856, 0.019474655389785767, 0.09934484213590622, -0.055725984275341034, -0.06251803040504456, -0.057833656668663025, 0.06330092996358871, -4.303338937461376e-05, 0.023143166676163673, -0.09462881088256836, 0.009074212051928043, 0.021203823387622833, 0.03930096700787544, -0.11210604012012482, -0.05411507561802864, 0.10716420412063599, 0.02201840654015541, 0.04286734387278557, 0.09697917103767395, 0.009368307888507843, 0.10130450874567032, 0.07756399363279343, 0.10280609875917435, -0.013003695756196976, 0.0687369853258133, 0.05173008143901825, -0.041136834770441055, -0.003954558167606592, -0.09217020124197006, -0.004436742980033159, -0.0021327375434339046, 0.07056265324354172, 0.035971444100141525, 0.07586876302957535, 0.10259843617677689, -0.06143203377723694, -0.03820918872952461, -0.1135990098118782, -0.07892358303070068, -0.07512824237346649, 0.0005665894714184105, 0.04791130870580673, -0.07923239469528198, -0.07304994016885757, -0.00042514794040471315, -0.0923718512058258, 0.034220702946186066, 0.09964941442012787, -0.0684540867805481, 0.08363980054855347, 0.11142097413539886, 0.05129294842481613, 0.04124898463487625, 0.05028011277318001, 0.058926984667778015, -0.06720741093158722, -0.07618895918130875, -0.10347535461187363, -0.11299797892570496, 0.10063812136650085, 0.08173586428165436, -0.07036631554365158, -0.054519131779670715, 0.006651768926531076, -0.028366008773446083, -0.12044791877269745, -0.0964679941534996, -0.09132348746061325, -0.06288548558950424, 0.09405843913555145, 0.08228201419115067, -0.05768849700689316, -0.08279044926166534, 0.03768033906817436, 0.016514064744114876, -0.010847690515220165, -0.047982726246118546, 0.10750458389520645, -0.10211177915334702, -0.07662791013717651, -0.06903254985809326, 0.09306389838457108, -0.022519990801811218, 0.050343241542577744, 0.056751929223537445, 0.07317497581243515, 0.10611403733491898, 0.0007336497073993087, -0.002262410242110491, 0.07674900442361832, 0.02005625143647194, -0.005647189449518919, -0.004727089311927557, -0.05831625685095787, -0.06401516497135162, -0.11283576488494873, 0.004512823186814785, -0.11673054099082947, 0.005665284115821123, -0.08011152595281601, 0.05170620232820511, -0.03429483249783516, -0.008049504831433296, -0.007614906877279282, 0.06085411459207535, 0.05081737041473389, -0.11404743045568466, -0.0632125735282898, -0.09784619510173798, -0.05564441531896591, 0.0542791485786438, -0.05762983486056328, -0.08277931809425354, -0.03514460474252701, -0.07118088006973267, -0.08380094915628433, -0.09419139474630356, -0.0300093125551939, 0.007912355475127697, -0.03970919921994209, -0.024012666195631027, -0.016156436875462532, 0.02399967424571514, 0.08735446631908417, -0.02693508192896843, -0.03221562132239342, -0.06679735332727432, -0.05240970477461815, 0.07473314553499222, 0.09781108051538467, -0.009670381434261799, -0.05022832378745079, -0.04680021107196808, -0.0016097294865176082, 0.017043661326169968, 0.02853783220052719, 0.04064539819955826, 0.04831916093826294, -0.10260038822889328, -0.08479428291320801, 0.07546410709619522, 0.05456474423408508, -0.022023867815732956, 0.09822650253772736, 0.04584117978811264, -0.11722631752490997, -0.023231444880366325, 0.07941876351833344, -0.03936418890953064, -0.06086673587560654, 0.0013538324274122715, 0.07839685678482056, -0.11478915065526962, -0.06774888187646866, -0.11035870015621185, 0.002208457328379154, -0.06054610759019852, -0.07382965832948685, -0.05962400510907173, -0.017806820571422577, -0.027825240045785904, 0.07139191031455994, -0.08818027377128601, 0.018650460988283157, -0.03320607170462608, 0.026471741497516632, -0.04543991759419441, 0.05902334675192833, -0.07523565739393234, 0.12110909074544907, 0.07396182417869568, 0.09845266491174698, -0.11953941732645035, -0.08369272947311401, -0.03931354358792305, 0.040732160210609436, 0.012121683917939663, 0.07670123130083084, 0.10414183139801025, 0.05512109771370888, -0.1158040463924408, 0.06304620951414108, 0.07393896579742432, 0.07908444106578827, -0.008783540688455105, 0.031514786183834076, -0.05864680930972099, 0.08188990503549576, 0.05688510835170746, -0.006749466061592102, -0.10625985264778137, 0.01175594050437212, 0.08207262307405472, 0.020622922107577324, -0.07885021716356277, 0.031194310635328293, -0.02338838391005993, -0.00552828423678875, -0.04433085769414902, 0.07415679097175598, 0.11694753170013428, -0.03741304576396942, -0.04290995001792908, -0.046618059277534485, -0.05255267396569252, 0.04732080549001694, -0.0174278374761343, 0.026492144912481308, 0.030744362622499466, -0.07072021812200546, -0.09968993067741394, -0.10248924046754837, -0.036945316940546036, -0.0003029195941053331, -0.06120250001549721, 0.0821661427617073, 0.10588807612657547, -0.044833146035671234, 0.11559044569730759, -0.08807871490716934, -0.07271413505077362, 0.11311713606119156, 0.11923594772815704, -0.005386047996580601, -0.03965204581618309, -0.1234210953116417, 0.024981888011097908, 0.0780458152294159, -0.05483324080705643, 0.05113206058740616, 0.0634077787399292, -0.07817962765693665, 0.06328687816858292, 0.12085267156362534, -0.12113083153963089, -0.12250976264476776, 0.08809306472539902, 0.11868032068014145, -0.08716042339801788, -0.04265379160642624, 0.09088045358657837, 0.004711967892944813, -0.07610691338777542, 0.06336698681116104, -0.020895253866910934, -0.10324949026107788, 0.03809872269630432, 0.044078387320041656, 0.11179906129837036, 0.06311216950416565, -0.11610327661037445, -0.10962801426649094, -0.10194603353738785, -0.020287465304136276, 0.09705960750579834, 0.053842753171920776, 0.003754422999918461, -0.009521858766674995, -0.030747905373573303, -0.07131174206733704, -0.011983351781964302, -0.10367147624492645, -0.07558561861515045, -0.029039492830634117, 0.031278613954782486, 0.048088669776916504, 0.038029029965400696, 0.10232726484537125, -0.06644324213266373, 0.08059830963611603, 0.11445103585720062, 0.05235988646745682, 0.009949524886906147, -0.11284349113702774, -0.032133713364601135, 0.09163279086351395, -0.09998242557048798, 0.012260135263204575, 0.07156257331371307, 0.09086472541093826, 0.033199045807123184, 0.015160031616687775, 0.1184685155749321, 0.105209581553936, 0.011338295415043831, -0.07309180498123169, -0.11142261326313019, 0.11921816319227219, 0.010575552470982075, -0.12226803600788116], [0.12130971252918243, -0.10645677149295807, -0.05898807570338249, -0.03500612825155258, 0.08772335201501846, -0.02031322568655014, 0.08141247928142548, -0.04008730500936508, -0.02619924210011959, 0.01732003688812256, 0.03494489938020706, -0.09777259081602097, 0.1023903489112854, 0.006089917384088039, -0.08674804121255875, -0.036362167447805405, -0.1108139157295227, -0.032293956726789474, -0.12157952785491943, -0.09591258317232132, -0.12360212206840515, -0.12065105885267258, 0.11119723320007324, 0.06986106187105179, -0.03283367305994034, 0.07109411805868149, -0.08600632101297379, -0.09888340532779694, -0.056196555495262146, 0.06078391522169113, 0.11807844787836075, -0.01628110185265541, -0.002991241868585348, 0.107569120824337, -0.011879989877343178, 0.11316150426864624, 0.0013694708468392491, 0.09161771088838577, 0.055065277963876724, 0.1072462722659111, 0.12514013051986694, 0.08530367910861969, 0.11709413677453995, 0.006066329311579466, -0.058663442730903625, -0.10609456151723862, 0.020533530041575432, -0.09585429728031158, -0.10980439186096191, 0.0018405038863420486, -0.09679929167032242, 0.046172093600034714, -0.01525269728153944, -0.022377902641892433, -0.02507147565484047, -0.05700258910655975, -0.03466083109378815, 0.008464761078357697, 0.08042971044778824, 0.09824598580598831, 0.03174072131514549, -0.03907692804932594, 0.0025987953413277864, 0.0822916105389595, 0.061697106808423996, -0.11205872893333435, 0.04194967821240425, -0.021703217178583145, 0.08097457885742188, 0.07131438702344894, -0.07951734960079193, 0.056713610887527466, 0.11748604476451874, -0.09940948337316513, 0.054503701627254486, 0.013719161972403526, 0.09828893095254898, 0.05252927914261818, 0.054146476089954376, -0.05250180885195732, 0.10874583572149277, 0.06335791200399399, -0.09594579041004181, 0.12360914051532745, -0.09123115986585617, 0.09161460399627686, -0.07661249488592148, 0.04484008997678757, -0.026465032249689102, -0.12262529134750366, 0.005106817930936813, -0.0684419572353363, 0.07062990218400955, 0.014718773774802685, 0.0561908520758152, -0.12314724177122116, -0.09877346456050873, -0.025080107152462006, -0.045398589223623276, -0.0506613552570343, 0.11423470079898834, -0.09782282263040543, -0.08233853429555893, 0.10315323621034622, 0.08008281886577606, -0.08946418017148972, -0.0639260858297348, 0.033813271671533585, -0.07442894577980042, -0.10250608623027802, -0.02054852992296219, 0.06491154432296753, -0.05957333371043205, 0.05873170867562294, -0.00700231222435832, 0.00947923120111227, -0.024433394894003868, -0.02387385070323944, -0.05723368376493454, -0.11980090290307999, 0.05441820248961449, 0.09711561352014542, 0.10651787370443344, -0.09024855494499207, 0.04807306081056595, -0.03575841337442398, 0.08560441434383392, 0.000860466854646802, 0.1104116290807724, -0.09531006962060928, 0.05514736473560333, 0.033022936433553696, -0.0920998826622963, 0.01712605729699135, 0.008009551092982292, -0.044825151562690735, 0.09601929783821106, 0.01972298137843609, -0.015015698969364166, 0.023535504937171936, -0.06254100799560547, -0.0688234344124794, -0.016763728111982346, -0.07903657108545303, -0.040486566722393036, 0.0909939855337143, -0.07059858739376068, 0.08892621845006943, 0.03518783673644066, -0.0021306267008185387, 0.006803642027080059, 0.0790884867310524, 0.07350750267505646, 0.05305800959467888, -0.039064813405275345, -0.08953949809074402, -0.09497523307800293, 0.06321875005960464, 0.07957860827445984, 0.09221234172582626, -0.09832006692886353, -0.09163396060466766, -0.09652699530124664, -0.10208716243505478, 0.08773870021104813, 0.10831441730260849, -0.011962607502937317, 0.004513120744377375, 0.08498332649469376, -0.013126463629305363, 0.006089266389608383, 0.04126273840665817, 0.005214816424995661, 0.028615256771445274, 0.03852798417210579, -0.0087889414280653, -0.05110906809568405, -0.009489359334111214, 0.07642553746700287, 0.09082754701375961, -0.08910836279392242, 0.03644389286637306, -0.06681273877620697, 0.06001649796962738, -0.040644239634275436, 0.1178850457072258, 0.06315227597951889, -0.04125061631202698, -0.0970655158162117, 0.09032416343688965, 0.007748498115688562, -0.06583548337221146, 0.02101830765604973, 0.030352957546710968, 0.039329200983047485, 0.02905157580971718, -0.07338690757751465, -0.01653282903134823, -0.06871341168880463, 0.057683587074279785, 0.01834917441010475, 0.12033064663410187, -0.12358488142490387, 0.10263710469007492, 0.027499333024024963, -0.05605608969926834, -0.12382405996322632, 0.06097907945513725, 0.027834704145789146, -0.0768735483288765, 0.0869324579834938, 0.09200584143400192, 0.05206172540783882, 0.10522972047328949, 0.04321407154202461, -0.07919926941394806, 0.08087262511253357, 0.08751466870307922, -0.10239628702402115, -0.02192245051264763, -0.04505850002169609, 0.03451243042945862, 0.10357298702001572, 0.005341041833162308, -0.014483131468296051, -0.0015280030202120543, -0.03889859840273857, -0.005319989286363125, 0.07476920634508133, 0.025729598477482796, 0.06252436339855194, -0.0005899833049625158, -0.09174393117427826, 0.05345062166452408, -0.036842115223407745, -0.06022564321756363, -0.07647544890642166, 0.02261856198310852, 0.02658768557012081, 0.06995244324207306, -0.05474969744682312, 0.021938374266028404, -0.1193629652261734, 0.10229800641536713, 0.10792878270149231, -0.06855454295873642, 0.01953437551856041, -0.10069721192121506, -0.10284309089183807, 0.058382585644721985, -0.07472504675388336, 0.058952923864126205, -0.1171022430062294, -0.09994848817586899, 0.07745558768510818, -0.11179132759571075, -0.019537469372153282, 0.07798507809638977, -0.04665898531675339, 0.09255433082580566, 0.018148601055145264, -0.03281283751130104, -0.005678629968315363, -0.11871057748794556, -0.04335901886224747, -0.041946686804294586, -0.07592583447694778, -0.09982318431138992, -0.021452924236655235, -0.04042751342058182, 0.08397715538740158, 0.07866885513067245, 0.10796976834535599, -0.04549841582775116, -0.01970832236111164, -0.016583871096372604, 0.10353660583496094, -0.03618968650698662, 0.030018093064427376, 0.07227014005184174, -0.05986897274851799, -0.09958573430776596, 0.03727457672357559, -0.10685072094202042, 0.03855335712432861, 0.036801353096961975, -0.0382506363093853, 0.020122205838561058, -0.08271832019090652, -0.1067555770277977, -0.0018830139888450503, 0.023771943524479866, 0.0966649278998375, -0.0448543056845665, 0.12219138443470001, 0.0631246268749237, 0.11146476864814758, 0.061832528561353683, -0.04453843832015991, 0.10495412349700928, 0.10947724431753159, 0.01967647857964039, 0.12254776805639267, 0.012702384032309055, -0.11842623353004456, -0.04971851781010628, 0.03913448750972748, -0.07861632108688354, -0.05600724741816521, 0.06716199964284897, 0.052733488380908966, -0.10294202715158463, -0.0022832215763628483, 0.0537211149930954, 0.12297751009464264, -0.005504880100488663, 0.002498155226930976, -0.00021863461006432772, 0.08207253366708755, -0.05620720982551575, 0.05404690280556679, -0.1060231551527977, 0.10051871836185455, -0.1195111870765686, 0.10818348824977875, -0.02349071018397808, -0.032999053597450256, 0.06759563088417053, -0.0862271636724472, -0.08953505009412766, -0.06637314707040787, -0.10465335100889206, -0.023941241204738617, -0.11788154393434525, -0.10128083825111389, 0.11647829413414001, -0.02520274557173252, -0.09238290786743164, -0.07723059505224228, -0.061292748898267746, 0.021089226007461548, -0.014676586724817753, 0.03076861798763275, -0.07242833822965622, 0.0874585211277008, -0.0730176493525505, 0.05081823468208313, -0.11859503388404846, -0.023886412382125854, -0.08019706606864929, -0.00384667981415987, 0.0004359727608971298, 0.003190417308360338, 0.10749901831150055, 0.03722381219267845, 0.09602896869182587, -0.08897988498210907, 0.049544718116521835, 0.0816408097743988, 0.024374987930059433, 0.11528176814317703, -0.08855846524238586, -0.04689210653305054, 0.11640989780426025, -0.09107460826635361, -0.031128309667110443, 0.0799785777926445, 0.1149689257144928, 0.08237507939338684, -0.04769887402653694, -0.04030685871839523, 0.02477525733411312, -0.02679743990302086, 0.021182779222726822, 0.007200239226222038, 0.11638610064983368, 0.008047922514379025, -0.07676929235458374, -0.07824336737394333, -0.02377133257687092, 0.04473645240068436, -0.09650976955890656, -0.006309117190539837, 0.03845345973968506, -0.03984149917960167], [0.022904571145772934, -0.028602715581655502, 0.08036524802446365, 0.10866731405258179, 0.04017161205410957, -0.04134296625852585, 0.0016693796496838331, -0.002794274128973484, 0.08370975404977798, 0.04169869422912598, -0.08110881596803665, 0.0007530158618465066, 0.1184769943356514, -0.11520922183990479, -0.05234921723604202, -0.04397392272949219, 0.11844173818826675, -0.009216452948749065, -0.005992142949253321, 0.10485691577196121, -0.1024107113480568, -0.018165763467550278, 0.0890798345208168, -0.10289506614208221, 0.10100283473730087, -0.07841365039348602, 0.03809688985347748, 0.09256389737129211, -0.06642508506774902, -0.06461238116025925, 0.02825666218996048, -0.07172120362520218, 0.08726898580789566, 0.06814753264188766, 0.05141320079565048, -0.05905001610517502, -0.010725249536335468, -0.08301831036806107, 0.08154214173555374, 0.09046612679958344, -0.08540446311235428, 0.0008861540118232369, -0.0024202135391533375, 0.042785920202732086, -0.11381251364946365, 0.036378029733896255, -0.0039818547666072845, 0.08889396488666534, 0.01661388762295246, -0.022794077172875404, 0.07951464504003525, -0.12006954848766327, 0.002657459583133459, -0.07856210321187973, -0.054844580590724945, -0.058262843638658524, -0.12001493573188782, -0.009626662358641624, -0.05235803499817848, 0.029380103573203087, 0.06378205865621567, -0.05497082322835922, 0.0009156723972409964, 0.04047654941678047, 0.012196222320199013, 0.08017414808273315, -0.019915785640478134, -0.06542013585567474, -0.08587437123060226, 0.039352044463157654, -0.03970737010240555, -0.12228695303201675, -0.008805176243185997, 0.06970208138227463, 0.041795678436756134, -0.03364565968513489, 0.010619554668664932, -0.09304630756378174, 0.09095675498247147, 0.11006034165620804, 0.051494866609573364, 0.004660983569920063, 0.0379166454076767, 0.09178274124860764, 0.017673231661319733, -0.03184220939874649, -0.08949662744998932, 0.016370855271816254, 0.011032390408217907, -0.03062998317182064, 0.12205208837985992, 0.09529441595077515, -0.0774272233247757, -0.1042444109916687, 0.042247068136930466, 0.06125151738524437, -0.027925647795200348, -0.04743598774075508, -0.10782647132873535, 0.07705122977495193, 0.045899610966444016, 0.042681530117988586, 0.013309634290635586, 0.032773207873106, -0.12068696320056915, 0.030960308387875557, 0.1088358536362648, 0.04425901547074318, -0.03074035793542862, 0.09412917494773865, 0.07963328063488007, -0.022989708930253983, 0.07408412545919418, 0.06336913257837296, -0.0395810604095459, 0.08863983303308487, -0.06372979283332825, -0.02957649528980255, 0.08317147940397263, -0.11929500848054886, -0.10981391370296478, 0.10080885142087936, 0.12128502130508423, -0.035772714763879776, -0.11103875935077667, -0.017490413039922714, 0.014729072339832783, -0.07263396680355072, 0.07732903212308884, 0.04436294361948967, 0.05423625931143761, 0.09418579936027527, 0.084751196205616, -0.05377230793237686, -0.02996715158224106, 0.07632027566432953, 0.018264364451169968, 0.023670673370361328, -0.009933200664818287, -0.08615986257791519, -0.11565272510051727, -0.007402394898235798, -0.04218224808573723, 0.04393297806382179, -0.015531349927186966, -0.06550272554159164, -0.01681535132229328, 0.07817289978265762, 0.1122906357049942, -0.12352731823921204, 0.008972087875008583, -0.027447856962680817, 0.09009230881929398, -0.035410091280937195, -0.07049627602100372, -0.018706995993852615, 0.07503636181354523, -0.03604403883218765, 0.01008691731840372, 0.1177506148815155, -0.06510485708713531, -0.026457546278834343, -0.07318039983510971, -0.025832250714302063, -0.03853828087449074, 0.07998016476631165, 0.010360869579017162, -0.056235503405332565, -0.027530018240213394, 0.07011210173368454, -0.1120118796825409, -0.08430035412311554, -0.052249740809202194, 0.12258748710155487, 0.04615257307887077, -0.037995100021362305, -0.05027655512094498, 0.10567867010831833, -0.0558839812874794, 0.05002997815608978, -0.1178852841258049, -0.07553685456514359, -0.052896007895469666, -0.026472873985767365, 0.07896731048822403, -0.1227097436785698, -0.11235262453556061, 0.12355924397706985, -0.10692393779754639, 0.0631682500243187, 0.009160026907920837, -0.02262342907488346, 0.06886275857686996, -0.08920733630657196, 0.0036740973591804504, -0.04230404272675514, 0.1232236996293068, 0.06327825039625168, 0.031834881752729416, -0.045270491391420364, 0.06417063623666763, 0.03297559916973114, 0.0336105115711689, 0.018327699974179268, 0.08185415714979172, -0.0824941098690033, 0.021570716053247452, 0.08953385800123215, 0.07904872298240662, -0.088675357401371, -0.1013374775648117, 0.060915086418390274, 0.10175430029630661, 0.007690258789807558, -0.004750669002532959, 0.004573833663016558, -0.032276056706905365, 0.09422934055328369, 0.00011197652202099562, -0.03440612927079201, 0.017078468576073647, 0.051346879452466965, -0.05891905352473259, -0.022865597158670425, -0.042983364313840866, 0.10414765030145645, 0.010786740109324455, 0.0366881787776947, -0.02478625439107418, -0.04986852779984474, -0.06615263223648071, 0.004478621296584606, 0.09538442641496658, 0.05676267296075821, -0.11324211955070496, 0.09408022463321686, -0.04509463161230087, 0.08749324083328247, 0.08015076816082001, 0.10831958055496216, -0.1045740395784378, -0.07078316807746887, 0.11195998638868332, 0.052671074867248535, 0.01646760292351246, -0.062125157564878464, -0.07600848376750946, 0.1019720509648323, 0.012578184716403484, 0.053235042840242386, 0.013985895551741123, 0.11618783324956894, -0.11546621471643448, -0.046947840601205826, 0.09973698854446411, 0.07192473113536835, -0.019847912713885307, -0.05537812039256096, 0.0016320643480867147, -0.055555153638124466, 0.10231028497219086, 0.026792114600539207, -0.04099972918629646, -0.09127462655305862, -0.0041144597344100475, -0.07713979482650757, -0.02977210097014904, 0.05924629047513008, 0.11086668074131012, 0.08242310583591461, -0.012535478919744492, -0.024658912792801857, -0.0027924596797674894, -0.014980312436819077, 0.07582615315914154, -0.10086049884557724, 0.07260049134492874, -0.013226613402366638, 0.05702456459403038, -0.024975934997200966, 0.0007899732445366681, -0.11978744715452194, -0.044548097997903824, 0.009617272764444351, 0.02472778595983982, 0.12103629857301712, -0.05229828506708145, 0.11307429522275925, -0.058995041996240616, -0.10148468613624573, -0.00037921336479485035, 0.0494837760925293, 0.018163394182920456, 0.05696555972099304, 0.05066952109336853, -0.08562374860048294, 0.002139085903763771, 0.042578503489494324, -0.10409286618232727, 0.10261153429746628, 0.09002470225095749, 0.04631046578288078, 0.0035633686929941177, 0.008793734014034271, -0.036996226757764816, 0.03690175712108612, -0.027396291494369507, -0.03925006091594696, -0.05416073277592659, 0.0878046378493309, 0.06338272243738174, 0.0971059650182724, 0.10741760581731796, -0.04468200355768204, -0.09112422913312912, -0.10682667046785355, 0.08725693821907043, 0.10463836044073105, 0.060926634818315506, 0.07515665143728256, -0.11870232969522476, -0.11313594877719879, 0.013499412685632706, 0.07051771879196167, 0.09012387692928314, 0.10887661576271057, -0.0704517662525177, 0.04922599345445633, 0.07392573356628418, -0.076259084045887, -0.0016916862223297358, -0.08185919374227524, -0.03202562779188156, 0.09932900220155716, 0.022456087172031403, 0.029028955847024918, -0.0651618242263794, -0.0032080865930765867, 0.0852779671549797, -0.01163424737751484, 0.01983262225985527, -0.06552118062973022, -0.11090345680713654, 0.07981815934181213, -0.0951775535941124, 0.10537783801555634, 0.11053894460201263, 0.05955499783158302, 0.057632528245449066, 0.06973055005073547, -0.06630156934261322, 0.05750461667776108, -0.07996004074811935, -0.11791592091321945, -0.06401826441287994, -0.09284089505672455, 0.07381894439458847, 0.05354302376508713, -0.000364770763553679, 0.08121036738157272, -0.06089715287089348, 0.12143635004758835, 0.04427991807460785, 0.06326764076948166, 0.08404266834259033, -0.07718397676944733, 0.03062518686056137, -0.05533445626497269, 0.08642490953207016, -0.06253884732723236, 7.921166252344847e-05, -0.06755345314741135, -0.10866457223892212, 0.04010412096977234, -0.0954335629940033, -0.09625954926013947, 0.0830971822142601, -0.11958897113800049, 0.012717146426439285, -0.09014364331960678, 0.06997489929199219, 0.11646121740341187, 0.10183126479387283, 0.027125952765345573, -0.028143370524048805], [0.028936302289366722, 0.07987924665212631, 0.09569540619850159, -0.053712841123342514, 0.10649091005325317, -0.005611051805317402, 0.0067037721164524555, -0.09608983248472214, 0.09304367005825043, -0.09472750872373581, -0.09545664489269257, -0.053539153188467026, 0.09209267050027847, -0.011067391373217106, 0.046503208577632904, 0.09132114052772522, 0.09733624756336212, 0.01124601997435093, -0.030414503067731857, -0.08906654268503189, 0.1096835657954216, -0.08570296317338943, -0.053833842277526855, -0.0608646385371685, 0.0044584437273442745, -0.11895895004272461, 0.09634559601545334, -0.1115129217505455, -0.0888301432132721, -0.019312705844640732, 0.08706079423427582, -0.04919369891285896, -0.0016950969584286213, -0.039247289299964905, -0.10843147337436676, -0.0391819067299366, -0.07441726326942444, -0.10247767716646194, 0.11480744183063507, -0.06337715685367584, 0.05256245285272598, 0.08674735575914383, -0.013193587772548199, 0.004390271380543709, -0.04599665477871895, 0.020225366577506065, 0.11095839738845825, 0.027111753821372986, -0.08341243118047714, -0.04262299835681915, 0.12237700074911118, -0.013286844827234745, 0.11266110092401505, -0.006170864216983318, -0.04979186877608299, -0.11493419110774994, 0.06704311072826385, 0.0912281796336174, 0.09046212583780289, -0.12196659296751022, -0.0864657461643219, -0.11295247077941895, -0.02631233260035515, 0.11711934208869934, -0.09953955560922623, 0.017079584300518036, -0.1114635169506073, -0.05884033069014549, 0.053108133375644684, -0.002843766938894987, -0.03063875064253807, 0.04022467881441116, -0.015471883118152618, 0.0700288712978363, 0.0040444377809762955, -0.10021640360355377, -0.04075060039758682, 0.08007171750068665, -0.10571786016225815, 0.040745895355939865, 0.09354766458272934, 0.0977422222495079, -0.028544217348098755, 0.0920463353395462, 0.03043201193213463, -0.11601939797401428, -0.10614963620901108, 0.0753980427980423, 0.010637589730322361, 0.03313172236084938, -0.12280581891536713, -0.048734795302152634, -0.09520722180604935, 0.09294421970844269, -0.10400061309337616, -0.025700101628899574, 0.04359782859683037, -0.05489794909954071, 0.05069355666637421, -0.08334656804800034, 0.0506892204284668, -0.052118171006441116, -0.06446904689073563, -0.06060051545500755, 0.1178903579711914, 0.028355441987514496, 0.03933091089129448, 0.12407014518976212, -0.07843559980392456, -0.043061114847660065, 0.029744450002908707, 0.03622562438249588, -0.10242316126823425, 0.10808947682380676, -0.0355132520198822, 0.12579606473445892, -0.07652848958969116, 0.09023260325193405, 0.041830576956272125, -0.0969565212726593, -0.06115536764264107, 0.07747501134872437, 0.08537700772285461, -0.006732994690537453, -0.01216574665158987, -0.021120978519320488, -0.05095532536506653, -0.06313028186559677, 0.048705074936151505, -0.11417090147733688, -0.10969090461730957, -0.10770692676305771, -0.08803356438875198, 0.04263118654489517, 0.10090751200914383, -0.03665978088974953, 0.036968741565942764, 0.10561513155698776, 0.0966373085975647, 0.05654174089431763, -0.05828363448381424, -0.12239342927932739, 0.05028368532657623, -0.023550936952233315, 0.03471504524350166, 0.0770011693239212, -0.0056985970586538315, -0.023589270189404488, -0.11625327169895172, -0.031359463930130005, -0.08426187187433243, 0.11602897197008133, 0.044109515845775604, 0.03972538188099861, -0.116116963326931, -0.0635703057050705, 0.1231803372502327, -0.055338967591524124, -0.04556379094719887, 0.10974150151014328, -0.10155748575925827, -0.07704129070043564, -0.11168406158685684, 0.11203054338693619, 0.08762191981077194, 0.04364472255110741, 0.019309157505631447, -0.08907505124807358, 0.07805093377828598, 0.040322139859199524, 0.06681001931428909, 0.012927623465657234, 0.11979828029870987, 0.08690878748893738, -0.08307424187660217, -0.023839592933654785, 0.009231423027813435, 0.06190114840865135, 0.00982524175196886, -0.12098690867424011, -0.027255676686763763, 0.03007311001420021, -0.08096158504486084, -0.06674369424581528, -0.08308608829975128, 0.07227258384227753, 0.11954377591609955, -0.06056979298591614, -0.008181236684322357, 0.03411722183227539, -0.11015539616346359, 0.001840310636907816, -0.12023098021745682, -0.09444300085306168, -0.00848291628062725, -0.054800815880298615, -0.06885778903961182, 0.04919414594769478, -0.0324733629822731, 0.03159273415803909, -0.1058293953537941, -0.08012077957391739, -0.0002008093288168311, -0.09280633926391602, -0.022603370249271393, 0.019777968525886536, -0.08759605884552002, 0.07219768315553665, 0.05140143632888794, 0.03542312979698181, -0.02805684320628643, 0.004387500695884228, 0.07330690324306488, 0.022808793932199478, 0.041255269199609756, -0.1195678561925888, 0.048816729336977005, 0.053330257534980774, -0.06274281442165375, -0.005060086492449045, -0.0596633218228817, 0.06279406696557999, -0.008672920055687428, -0.05396795645356178, 0.04860242083668709, 0.09369346499443054, -0.10411964356899261, 0.09024125337600708, 0.06242436543107033, -0.006393705029040575, 0.09935174137353897, 0.05771263688802719, -0.008520685136318207, -0.054105862975120544, -0.11465059220790863, -0.03860011696815491, -0.0886862501502037, 0.10193484276533127, -0.04360087960958481, -0.034311920404434204, 0.06676243990659714, 0.04188690334558487, 0.0003068785881623626, 0.03652197867631912, 0.08107990026473999, -0.06864281743764877, -0.09478634595870972, 0.014361104927957058, 0.11149275302886963, 0.005488412920385599, -0.07585307955741882, -0.0757996067404747, 0.11592321842908859, 0.105986088514328, -0.06346410512924194, -0.003844099584966898, 0.01949462667107582, 0.12094084918498993, -0.10963110625743866, 0.09146831184625626, 0.10440286993980408, 0.09142753481864929, -0.051648400723934174, 0.07084015011787415, -0.001404344686307013, -0.013949551619589329, 0.09003712981939316, 0.005749153904616833, -0.09519737213850021, -0.000809142948128283, 0.11313837766647339, -0.043268732726573944, 0.05114550143480301, 0.07354846596717834, 0.02549383044242859, 0.0600486695766449, -0.08684539794921875, -0.10779239237308502, -0.031016116961836815, -0.09705586731433868, -0.014576331712305546, 0.021383143961429596, -0.018437150865793228, -0.11624784022569656, 0.05532204732298851, 0.08636261522769928, -0.049218762665987015, -0.07767092436552048, 0.10054391622543335, 0.028982792049646378, 0.04475806653499603, 0.012387532740831375, -0.09379680454730988, 0.09505891054868698, -0.10587999224662781, -0.0899968296289444, 0.04223354905843735, -0.0336713008582592, -0.054240308701992035, 0.04602840170264244, 0.005088696721941233, 0.106076180934906, -0.07851795107126236, 0.009148688055574894, 0.10081039369106293, -0.12240301817655563, -0.07790568470954895, 0.03685249760746956, -0.006603456102311611, -0.023407265543937683, 0.036116600036621094, -0.07012851536273956, 0.117768794298172, 0.03736666589975357, -0.0210419874638319, 0.05976249650120735, 0.04847969114780426, -0.10923922806978226, 0.08417864888906479, 0.029328031465411186, -0.0713672935962677, -0.06718400120735168, 0.0717911571264267, 0.09518345445394516, -0.1073264479637146, 0.07911114394664764, -0.041849419474601746, -0.1089574545621872, -0.11583151668310165, 0.059036679565906525, 0.07279612869024277, 0.0005067962920293212, 0.07302934676408768, 0.08954188227653503, -0.10714469105005264, 0.08210165798664093, -0.09832841157913208, -0.03709464147686958, -0.0912892296910286, 0.05341346561908722, -0.08423732221126556, 0.0649053230881691, -0.05018462985754013, -0.07286012172698975, -0.10744432359933853, 0.03990132734179497, 0.005008921958506107, 0.08902578055858612, 0.038206957280635834, 0.03877265378832817, 0.007804386783391237, 0.09172922372817993, -0.0024419636465609074, 0.043434008955955505, -0.045455362647771835, -0.002746105892583728, 0.010502577759325504, 0.08842121064662933, 0.07573744654655457, 0.003531254595145583, 0.10156318545341492, -0.11631026864051819, -0.08963185548782349, -0.07961539179086685, -0.061378903687000275, 0.014492922462522984, -0.009935486130416393, 0.04428423196077347, 0.09315640479326248, 0.11106704920530319, -0.03721720725297928, 0.0740969181060791, 0.043501876294612885, -0.09507358819246292, 0.048147052526474, 0.029417619109153748, 0.08521237969398499, 0.0427846759557724, 0.0743568167090416, 0.07076343148946762, -0.10079679638147354, 0.10471459478139877, 0.09531569480895996, -0.07669243961572647, 0.06583742797374725], [0.04706287384033203, 0.03654836118221283, -0.09451732039451599, 0.1169472187757492, -0.08166525512933731, -0.0600862056016922, -0.0462200753390789, -0.0745251402258873, 0.02044772356748581, -0.12271837145090103, 0.015358831733465195, 0.11566171795129776, 0.0036209183745086193, 0.07248341292142868, 0.030799347907304764, -0.01450586598366499, -0.10048853605985641, -0.07553426176309586, -0.12164511531591415, 0.03102058544754982, 0.01370587944984436, 0.12384511530399323, -0.06175314635038376, -0.06454043090343475, -0.005995563697069883, 0.12183649837970734, 0.017397267743945122, -0.04775276780128479, -0.033764250576496124, 0.032925914973020554, 0.10376483201980591, 0.002379165729507804, -0.10077378153800964, -0.09671394526958466, -0.07491957396268845, 0.0015995121793821454, 0.07298783212900162, -0.004181024618446827, 0.104619599878788, -0.02132454141974449, -0.07024255394935608, 0.04889499396085739, -0.09651578217744827, -0.06719018518924713, 0.08631512522697449, 0.04413167014718056, 0.03815619647502899, 0.05705546960234642, 0.037191521376371384, 0.05907421186566353, 0.028860867023468018, -0.11667495965957642, -0.10627637058496475, -0.048749372363090515, -0.045172493904829025, -0.11252942681312561, -0.04384038224816322, 0.11251886188983917, -0.07504841685295105, -0.0893029123544693, 0.11829354614019394, -0.09623891860246658, 0.019548019394278526, -0.0860976129770279, 0.006701525300741196, -0.114962138235569, -0.04129904881119728, -0.0659015029668808, 0.06753462553024292, -0.08378336578607559, -0.032398637384176254, -0.01680688187479973, 0.1204371303319931, 0.050789810717105865, -0.055364906787872314, 0.058229658752679825, -0.04957360401749611, 0.07293357700109482, -0.022123007103800774, -0.08221399039030075, 0.055687468498945236, 0.08428065478801727, -0.02162144146859646, 0.10379743576049805, -0.05473567545413971, -0.10871164500713348, -0.04174075275659561, 0.04359294846653938, -0.08891572803258896, -0.002701358636841178, 0.06794777512550354, -0.08541364967823029, 0.047607604414224625, 0.026154587045311928, 0.10885594040155411, 0.11718543618917465, 0.04958055168390274, 0.06295426934957504, 0.041143130511045456, -0.10090994834899902, 0.11039593070745468, -0.07455190271139145, -0.10714052617549896, 0.04089641198515892, -0.09403586387634277, -0.06894346326589584, -0.024172285571694374, -0.043738048523664474, -0.0551682710647583, -0.03751961514353752, -0.11401954293251038, 0.07185935974121094, 0.07481492310762405, 0.0012543885968625546, -0.06777273863554001, -0.09581867605447769, 0.05588569864630699, 0.000171906896866858, -0.028198784217238426, 0.06275738775730133, -0.0770978257060051, 0.1014842689037323, -0.029922805726528168, 0.053590599447488785, 0.10997169464826584, 0.025321440771222115, 0.033736247569322586, -0.05805463343858719, 0.08873879909515381, -0.057796671986579895, -0.01219229493290186, 0.09293445199728012, -0.0003547206288203597, -0.09833376854658127, 0.0033145523630082607, -0.04874010756611824, 0.006042680703103542, 0.09826028347015381, 0.04168783128261566, -0.021366357803344727, -0.0828242301940918, 0.004425495862960815, -0.006949371192604303, 0.0546056404709816, -0.006038098130375147, -0.0037561184726655483, -0.056028977036476135, -0.0801006481051445, 0.096083864569664, -0.0542742982506752, 0.04848562926054001, 0.007438835222274065, 0.07466252148151398, 0.07450532168149948, 0.033751990646123886, 0.014604144729673862, 0.11050691455602646, -0.015043525956571102, -0.05499475449323654, -0.06799108535051346, -0.11592994630336761, -0.07099352031946182, -0.11255460232496262, 0.02984638884663582, 0.008498391136527061, 0.020400237292051315, -0.04022599011659622, -0.08986029028892517, -0.016845768317580223, -0.05046902224421501, 0.020487800240516663, 0.11831334233283997, 0.12169685959815979, 0.0543120801448822, -0.0879749283194542, -0.0007020251359790564, -0.0764957144856453, 0.03328416123986244, -0.014986829832196236, 0.015410080552101135, 0.030987856909632683, 0.12210690975189209, 0.05095825716853142, 0.09070270508527756, -0.03594657778739929, 0.07126902788877487, -0.04152835160493851, 0.08812651038169861, 0.03991887345910072, 0.006552098784595728, -0.026803111657500267, -0.06764762848615646, 0.10146800428628922, 0.06891579926013947, 0.05660747364163399, -0.042498186230659485, 0.04993665590882301, 0.09278886765241623, 0.06630206108093262, 0.0766889899969101, -0.06377878040075302, -0.05819711089134216, 0.03223297372460365, -0.018124599009752274, -0.07258454710245132, 0.02756728231906891, -0.02059520035982132, -0.11105736345052719, -0.0709938332438469, -0.05002230033278465, -0.013210006058216095, 0.058358967304229736, 0.121031254529953, 0.051526013761758804, 0.0787394568324089, -0.03071499988436699, -0.0759454295039177, 0.032360538840293884, -0.0004594640340656042, -0.00656654080376029, -0.06843234598636627, 0.11873508244752884, -0.11977140605449677, 0.04456818848848343, 0.02369052544236183, -0.12068415433168411, 0.12207780033349991, -0.1000465601682663, -0.05284591764211655, -0.012574274092912674, 0.016769040375947952, 0.08689417690038681, -0.10347776859998703, 0.0919409915804863, 0.06949768215417862, 0.09694190323352814, -0.10757217556238174, -0.07921773940324783, -0.06596812605857849, 0.08031261712312698, 0.05553634464740753, -0.04980803281068802, 0.08676963299512863, -0.030135150998830795, 0.1058814525604248, -0.03616272285580635, -0.09005237370729446, 0.025561897084116936, -0.02828904613852501, -0.10706443339586258, -0.10381589829921722, -0.09141305834054947, -0.08727085590362549, 0.05547690764069557, 0.07546021044254303, 0.050848450511693954, -0.07053970545530319, 0.03662173077464104, 0.12077055871486664, 0.013468802906572819, 0.10100167989730835, 0.0662173479795456, 0.008173187263309956, -0.0062290383502841, 0.04426475241780281, 0.0356820710003376, 0.11508184671401978, 0.030918581411242485, 0.021730687469244003, 0.045175112783908844, -0.011373324319720268, -0.07016724348068237, 0.026253117248415947, 0.07179867476224899, -0.0822182148694992, -0.025223907083272934, -0.09778670221567154, 0.034294355660676956, -0.023518197238445282, 0.10826367139816284, -0.019451649859547615, 0.06076964735984802, -0.07435169816017151, 0.11703526228666306, -0.06627678871154785, -0.017392955720424652, 0.019242936745285988, 0.0950467512011528, -0.012573246844112873, 0.015589012764394283, -0.08259376883506775, 0.04447360336780548, -0.019444268196821213, 0.08599814772605896, 0.09392121434211731, 0.029122797772288322, 0.10917516052722931, -0.06900403648614883, -0.07005070149898529, 0.08770684897899628, 0.0005204873159527779, 0.06805263459682465, 0.11885634064674377, -0.0013269485207274556, 0.12258662283420563, -0.05047491565346718, 0.06937917321920395, -0.019207697361707687, -0.09367023408412933, 0.07845568656921387, -0.07168936729431152, -0.0574432909488678, 0.05806296318769455, -0.06047718971967697, -0.060064610093832016, -0.06682194024324417, 0.09355287253856659, 0.12057577073574066, -0.025955798104405403, 0.006711896043270826, -0.11177107691764832, 0.038228195160627365, -0.025090033188462257, 0.0858934223651886, -0.07598263770341873, -0.023460129275918007, -0.08644533157348633, -0.05968694016337395, 0.08575671911239624, -0.05772317200899124, -0.04436454921960831, -0.11226780712604523, 0.009739886969327927, 0.10470732301473618, -0.014758090488612652, -0.12077421694993973, -0.09109960496425629, -0.06070598214864731, -0.05466799810528755, -0.005429235752671957, 0.07355844974517822, -0.0056207976303994656, 0.025830509141087532, -0.04521407186985016, -0.002534853992983699, -0.017146609723567963, -0.0037106159143149853, -0.0797215923666954, 0.09063611179590225, 0.06418991088867188, -0.11705837398767471, 0.038892216980457306, 0.05412974953651428, -0.08662562072277069, 0.07934475690126419, -0.028795462101697922, -6.96119386702776e-05, -0.024777116253972054, -0.08198300749063492, -0.10369955748319626, -0.02038191817700863, 0.0016135486075654626, -0.07813065499067307, -0.003172390628606081, -0.11828514188528061, -0.052612096071243286, 0.08374465256929398, -0.031561095267534256, -0.09889576584100723, -0.0002768451813608408, -0.08552383631467819, -0.1185605376958847, 0.004744494799524546, -0.06700058281421661, -0.02201778069138527, -0.05199612304568291, -0.06835413724184036, -0.05118661746382713, -0.03309469670057297, -0.038345642387866974, -0.04703085124492645, -0.017516452819108963, -0.000685582053847611, -0.015610799193382263, 0.005543232895433903], [-0.0989082083106041, 0.05456303432583809, 0.11313717067241669, -0.10702235251665115, -0.06918690353631973, -0.08804910629987717, -0.030128857120871544, -0.09271262586116791, 0.04132283106446266, 0.02644576132297516, 0.10320095717906952, -0.059523805975914, -0.016841385513544083, -0.0875522568821907, -0.012716168537735939, 0.061944231390953064, -0.04187140613794327, 0.030369941145181656, -0.07176177948713303, -0.01291629672050476, 0.013010991737246513, 0.10548769682645798, -0.03840092569589615, 0.05344979092478752, 0.10637311637401581, 0.023829983547329903, -0.02764156647026539, -0.04280419647693634, -0.043937087059020996, 0.027774356305599213, 0.10347852855920792, 0.04944775998592377, 0.060442596673965454, 0.09357845783233643, -0.03913286328315735, -0.0061880010180175304, -0.014370161108672619, 0.10499532520771027, -0.06262031942605972, 0.021941661834716797, 0.08327055722475052, -0.059422485530376434, -0.08398331701755524, -0.04616895318031311, -0.10423003137111664, 0.10516317933797836, 0.08223992586135864, -0.008354686200618744, 0.04481985419988632, -0.015040104277431965, -0.0722760483622551, 0.0465993732213974, -0.01979755237698555, 0.10006290674209595, -0.11706523597240448, -0.052887920290231705, -0.012109854258596897, 0.10263686627149582, 0.08426219969987869, 0.09042057394981384, 0.11954986304044724, -0.118955098092556, 0.11314837634563446, 0.043881651014089584, 0.037929486483335495, 0.007152714766561985, -0.0672040581703186, -0.09479375183582306, 0.09095380455255508, 0.09148303419351578, 0.07382305711507797, -0.06754221767187119, -0.0007318847347050905, -0.1091453954577446, -0.01724301092326641, 0.03010561317205429, -0.09929733723402023, -0.08514060825109482, 0.10827286541461945, -0.06136862561106682, -0.10707230865955353, -0.11370015144348145, 0.04614020884037018, -0.07767461240291595, -0.09474404156208038, -0.06258862465620041, -0.0018802641425281763, 0.07707039266824722, -0.07084379345178604, -0.11853594332933426, 0.03176381438970566, -0.0011521823471412063, -0.02247290313243866, 0.09098949283361435, 0.04889838397502899, 0.0880880355834961, 0.042382627725601196, 0.061662282794713974, 0.07772110402584076, 0.09160302579402924, 0.06923824548721313, -0.008318029344081879, -0.08051194995641708, -0.07003117352724075, 0.027657270431518555, 0.0019947367254644632, -0.03279576823115349, 0.10568186640739441, 0.06517446041107178, 0.07220783084630966, -0.052179720252752304, 0.06923175603151321, -0.1003095954656601, 0.013803255744278431, -0.04364430531859398, 0.02667926624417305, -0.05456192046403885, -0.06320008635520935, 0.011536329053342342, 0.022906789556145668, 0.12143203616142273, 0.11472074687480927, 0.06404915452003479, -0.06608714908361435, 0.03780030086636543, -0.0168986264616251, -0.08638093620538712, -0.12217187136411667, 0.0892380103468895, -0.0026046843267977238, -0.04538780078291893, -0.05215832218527794, -0.07974115759134293, 0.058077119290828705, 0.009775497019290924, -0.10284668207168579, -0.10811224579811096, -0.006627724505960941, -0.07948111742734909, 0.0850636288523674, 0.04809735342860222, -0.07700642198324203, -0.04397711530327797, -0.047698237001895905, -0.044755950570106506, -0.0310394074767828, -0.036255404353141785, -0.11239051818847656, -0.086419016122818, -0.06605292111635208, -0.0013676360249519348, -0.11136078834533691, -0.11564601212739944, 0.06854165345430374, 0.04992702603340149, 0.024633392691612244, 0.002326283836737275, -0.07336095720529556, -0.05989274010062218, -0.03398094326257706, -0.02403900772333145, -0.004560861270874739, 0.058188147842884064, -0.03990796580910683, 0.06859911978244781, 0.0890696793794632, -0.014410124160349369, -0.11341620236635208, -0.09321479499340057, 0.03371698781847954, -0.006270015146583319, 0.007859516888856888, -0.08676408231258392, 0.11996106803417206, 0.07453499734401703, -0.08313695341348648, 0.07051422446966171, -0.0492289699614048, -0.0888051688671112, -0.08666408807039261, -0.12376176565885544, -0.09032140672206879, -0.027856774628162384, 0.015926996245980263, -0.07486166805028915, 0.11097925156354904, 0.039649538695812225, -0.08283904939889908, 0.06448432803153992, 0.07908661663532257, -0.02374957501888275, -0.0016899623442441225, -0.022106967866420746, -0.0005444117123261094, 0.07763378322124481, 0.11181332916021347, -0.09209451079368591, -0.016901319846510887, 0.10694991052150726, 0.004328232724219561, -0.03272926062345505, 0.018414726480841637, 0.005114048253744841, 0.012485836632549763, -0.02094205841422081, -0.12202505022287369, 0.0050390660762786865, -0.10966914892196655, -0.005640407092869282, 0.0031130032148212194, -0.0890960842370987, -0.012159645557403564, -0.11987480521202087, 0.03563409298658371, 0.07680492103099823, 0.022900940850377083, 0.022995274513959885, 0.11428199708461761, -0.04790526628494263, 0.09262394905090332, -0.009131619706749916, -0.08670477569103241, 0.011445481330156326, 0.07591139525175095, -0.07662170380353928, 0.07874772697687149, 0.0904449075460434, -0.0009723861003294587, 0.0880977213382721, -0.07291969656944275, 0.04736893251538277, -0.03509748727083206, 0.05648971349000931, -0.01481215376406908, -0.06943539530038834, -0.02868645451962948, -0.09108122438192368, -0.06578731536865234, 0.022998042404651642, -0.10939322412014008, -0.10810570418834686, -0.11805206537246704, -0.06075245887041092, 0.05842779576778412, -0.03940817713737488, -0.016486456617712975, 0.11674346029758453, 0.06623827666044235, 0.10006440430879593, -0.09789364784955978, 0.08020412921905518, 0.1129019483923912, -0.0880134329199791, -0.03784371167421341, 0.09006674587726593, 0.0335363931953907, 0.0379849374294281, 0.07921922951936722, 0.1102796271443367, 0.018968701362609863, -0.01924070343375206, 0.09757634997367859, 0.04565473273396492, -0.018374932929873466, 0.0617000050842762, -0.09488144516944885, 0.02009643241763115, -0.0992637500166893, -0.06666126102209091, 0.009485132992267609, 0.10936429351568222, -0.018667858093976974, 0.037726592272520065, 0.004600984510034323, 0.07031381130218506, -0.07704239338636398, -0.08863925188779831, 0.07445809990167618, -0.11378460377454758, -0.07826926559209824, 0.11436429619789124, 0.09730608016252518, 0.11044253408908844, -0.05570194870233536, 0.037674326449632645, 0.03485780209302902, -0.010530389845371246, -0.06296847015619278, 0.08740482479333878, 0.06631043553352356, -0.03829139843583107, -0.041622936725616455, 0.10280044376850128, -0.004305724520236254, -0.12224271148443222, -0.08902551233768463, 0.07863409072160721, -0.002863769419491291, 0.08067139238119125, 0.107147715985775, 0.11648554354906082, -0.05259336158633232, -0.07477087527513504, -0.044253457337617874, 0.01910724677145481, -0.06371530890464783, 0.05652102455496788, 0.10830925405025482, 0.029089510440826416, 0.048839300870895386, 0.10071538388729095, -0.04230542480945587, -0.09286025166511536, -0.023252783343195915, -0.07783413678407669, 0.09135118126869202, -0.09782891720533371, -0.05078556761145592, 0.043853823095560074, -0.03174775838851929, -0.024498580023646355, -0.05130970478057861, 0.013120987452566624, 0.037741295993328094, -0.027455611154437065, 0.09135711938142776, -0.0009980815229937434, -0.1072549968957901, 0.09756118059158325, 0.001536175375804305, 0.10103808343410492, -0.12048859149217606, -0.06086054444313049, 0.07931024581193924, 0.10706936568021774, 0.009621155448257923, 0.02883058227598667, 0.0352734811604023, 0.06774751842021942, 0.03798389434814453, 0.06555173546075821, -0.11637867987155914, 0.0447734072804451, -0.01271058339625597, -0.1128980964422226, 0.07014625519514084, -0.02314339019358158, 0.11977079510688782, 0.08273494243621826, 0.060306377708911896, 0.036289021372795105, -0.010381880216300488, 0.028458215296268463, -0.11408282071352005, -0.020039554685354233, 0.10950419306755066, -0.04323631897568703, 0.10577620565891266, -0.10861586034297943, -0.1198841780424118, -0.016072921454906464, -0.015525441616773605, -0.02370835281908512, 0.1222773939371109, -0.12304017692804337, 0.01232951134443283, -0.08767382800579071, -0.061320021748542786, 0.06567350775003433, 0.11091987043619156, 0.08787846565246582, 0.04396069049835205, -0.0049300421960651875, 0.03251267597079277, 0.034239739179611206, 0.02573814056813717, -0.07290679961442947, -0.10877074301242828, 0.04731392860412598, -0.02748311311006546, -0.034980110824108124, 0.06695074588060379, -0.07411640137434006, -0.03881749510765076, 0.07207363843917847], [-0.018357491120696068, -0.04963621124625206, -0.0894109234213829, -0.11009532958269119, -0.007763407193124294, -0.05841490626335144, 0.09012899547815323, -0.05039997026324272, 0.09604299068450928, -0.11281084269285202, -0.09214581549167633, -0.04694275185465813, 0.05097425356507301, 0.010230310261249542, 0.1131276860833168, -0.07061612606048584, 0.036297962069511414, 0.04314250499010086, -0.055704209953546524, 0.02461526356637478, 0.06513317674398422, -0.08717934042215347, -0.11069060117006302, 0.020672032609581947, -0.00953906774520874, 0.03835027292370796, 0.06228458136320114, 0.059631362557411194, 0.10443156212568283, -0.08754489570856094, 0.06120365485548973, 0.05657367408275604, -0.0038874796591699123, 0.015739893540740013, -0.09189445525407791, -0.004588598385453224, 0.08791056275367737, -0.09349098056554794, 0.1099623516201973, -0.0008739011827856302, 0.0018938460852950811, 0.015138357877731323, -0.10996095836162567, -0.0902440994977951, -0.09189143031835556, -0.020980102941393852, -0.012590092606842518, -0.055163584649562836, 0.07322642207145691, -0.005277095828205347, 0.09866734594106674, 0.12070140987634659, 0.11595704406499863, 0.11924850940704346, -0.001556799397803843, 0.0731789842247963, -0.03536910563707352, -0.10835744440555573, 0.01823781616985798, 0.0596139132976532, 0.1037641167640686, 0.05767812579870224, -0.0779857486486435, -0.1165463924407959, 0.060451727360486984, -0.06338444352149963, -0.10187357664108276, -0.09200219810009003, 0.10008209943771362, 0.07321411371231079, -0.08865378797054291, -0.054660614579916, 0.014219808392226696, 0.030925309285521507, 0.04291178286075592, -0.10460798442363739, 0.08749012649059296, 0.031986355781555176, -0.006178643554449081, -0.05361616984009743, -0.08040504157543182, -0.012768842279911041, -0.03271254897117615, 0.019517475739121437, -0.0821005254983902, 0.05974115431308746, 0.08499334007501602, -0.07640542834997177, 0.05125638470053673, -0.11012350022792816, 0.1073153018951416, 0.05288602411746979, 0.07261723279953003, 0.04378490895032883, -0.09148768335580826, 0.1001720279455185, 0.01992434449493885, -0.0918302983045578, 0.036548733711242676, -0.0802140012383461, 0.0991867259144783, -0.07500310242176056, -0.07101485133171082, 0.05766982212662697, -0.052486106753349304, 0.04193175956606865, -0.027151133865118027, -0.05896451324224472, 0.03699310123920441, 0.09228206425905228, 0.05327196791768074, 0.03757430613040924, -0.09625691175460815, -0.06833778321743011, 0.11319871991872787, 0.08599241822957993, -0.0630427896976471, -0.07874680310487747, 0.11605653166770935, -0.08609121292829514, 0.0416073240339756, -0.07156695425510406, -0.009069986641407013, 0.029228487983345985, -0.11904548853635788, 0.08218170702457428, -0.11310082674026489, -0.042554158717393875, 0.004633148666471243, 0.1030922457575798, -0.060690637677907944, 0.03436797112226486, -0.10145388543605804, -0.10255787521600723, -0.10300783812999725, 0.05914187803864479, -0.02665541134774685, 0.06075504794716835, 0.028238875791430473, -0.024788858368992805, 0.011920229531824589, -0.09322911500930786, 0.09381704032421112, 0.010369127616286278, 0.07666464149951935, 0.026693910360336304, 0.027218397706747055, -0.0600757822394371, 0.06987237185239792, -0.09712597727775574, 0.10323621332645416, 0.04154694825410843, 0.05521128326654434, 0.0706649050116539, -0.04517000913619995, 0.12171541899442673, -0.09668341279029846, -0.0019323929445818067, 0.004806751385331154, 0.06001649796962738, 0.08135669678449631, 0.04800083860754967, -0.023502908647060394, -0.04143139347434044, 0.052199214696884155, -0.013008605688810349, 0.043073199689388275, 0.009510534815490246, -0.031739380210638046, -0.09716775268316269, -0.09202799201011658, -0.025192879140377045, -0.021228600293397903, 0.00767902098596096, -0.0601462796330452, -0.07010168582201004, -0.0971207246184349, -0.10051771998405457, -0.10782196372747421, 0.06218775734305382, -0.009503362700343132, 0.004330538213253021, -0.10155585408210754, 0.09823096543550491, -0.060271166265010834, -0.020106416195631027, -0.01411175075918436, 0.08467894792556763, -0.09948809444904327, 0.11681622266769409, -0.009483005851507187, 0.04522338882088661, 0.0861399695277214, 0.02812287211418152, -0.02000550739467144, -0.0022297012619674206, 0.0733226090669632, -0.08171999454498291, 0.1015615239739418, 0.07010906934738159, 0.08988917618989944, 0.0975746214389801, 0.06313695758581161, 0.078424371778965, -0.02593163028359413, 0.07011032104492188, -0.11906025558710098, -0.05419103428721428, 0.008822928182780743, 0.10990969836711884, 0.024521972984075546, -0.05530296638607979, 0.032151512801647186, 0.06625641882419586, -0.09087532758712769, 0.029681574553251266, -0.003924851305782795, 0.034218233078718185, -0.03848506882786751, -0.030971558764576912, 0.021684734150767326, 0.03876909986138344, 0.0678570419549942, 0.0005957286339253187, -0.10378444194793701, 0.0007855686126276851, 0.10076317191123962, 0.07553192973136902, 0.08575712144374847, 0.06473654508590698, 0.012497874908149242, 0.08201717585325241, -0.02571922540664673, -0.10576137155294418, -0.0626291036605835, 0.031213730573654175, 0.04937966167926788, 0.09328199177980423, -0.10431810468435287, 0.04336263984441757, 0.12220679968595505, -0.0479721836745739, -0.05864429473876953, 0.11287827044725418, 0.004321865737438202, -0.09646005183458328, 0.059298738837242126, 0.0098474882543087, 0.06521763652563095, 0.09989695250988007, -0.11632931977510452, 0.049240756779909134, 0.0744481161236763, -0.031867582350969315, -0.06373422592878342, 0.08215741068124771, -0.029200749471783638, -0.02467142790555954, -0.0713181421160698, -0.10687650740146637, -0.08500020205974579, 0.045170292258262634, -0.00039204180939123034, 0.012849006801843643, -0.11452341079711914, -0.026397304609417915, -0.09642690420150757, -0.10427883267402649, -0.11205240339040756, 0.0675416812300682, -0.06762274354696274, -0.11607625335454941, -0.03807729110121727, 0.10988691449165344, -0.009635173715651035, 0.05381789058446884, -0.06407587975263596, 0.005972363520413637, 0.005240674130618572, 0.029320798814296722, -0.08604070544242859, 0.03327071666717529, 0.03878764063119888, 0.07628415524959564, 0.04304216057062149, 0.08531971275806427, 0.019551025703549385, 0.006023011170327663, 0.05932578817009926, -0.03965682536363602, -0.04458027333021164, 0.05545014888048172, -0.12270127236843109, -0.04194222018122673, 0.09830165654420853, 0.0891169011592865, -0.05759046971797943, -0.014761899597942829, 0.03747986629605293, 0.01770073175430298, -0.06819426268339157, -0.11881253123283386, 0.09860868006944656, 0.11039283126592636, 0.0004537225468084216, 0.02376851998269558, 0.026497352868318558, -0.12340322136878967, -0.049082666635513306, -0.0257126372307539, 0.021532747894525528, 0.014523890800774097, -0.02893311344087124, -0.053603384643793106, -0.041150275617837906, -0.04672124981880188, -0.10541828721761703, -0.05764800310134888, -0.0383865050971508, -0.11581747233867645, 0.09802122414112091, 0.04817260429263115, 0.05466961860656738, 0.11543989181518555, -0.09394862502813339, -0.12311059981584549, -0.11260200291872025, 0.013596557080745697, 0.041844550520181656, -0.04902302101254463, 0.08721886575222015, 0.06235901638865471, -0.01989056169986725, 0.09081356227397919, 0.10018938034772873, 0.09981294721364975, 0.11063717305660248, 0.09055043756961823, -0.06256107240915298, 0.0463123545050621, 0.07524237781763077, -0.012401342391967773, 0.11829075217247009, 0.05779673159122467, -0.05512503907084465, 0.019909923896193504, 0.0668993666768074, 0.07029721885919571, 0.05265043303370476, -0.02032410353422165, -0.043219830840826035, -0.11017176508903503, -0.007529273629188538, 0.02745698019862175, 0.08657675236463547, 0.1163097470998764, 0.10067321360111237, -0.033663712441921234, -0.08848042041063309, 0.10997554659843445, -0.03394582122564316, -0.04763617739081383, -0.07623154670000076, 0.08699924498796463, -0.029179124161601067, -0.11809399724006653, 0.01921962760388851, 0.09196265786886215, -0.05750374123454094, 0.057544827461242676, -0.0889224112033844, -0.07364401966333389, -0.04610036313533783, -0.11466667801141739, -0.11723867058753967, 0.1184934675693512, 0.08326289057731628, 0.10732217133045197, 0.05431932955980301, 0.12130844593048096, -0.022522348910570145, 0.11321933567523956, -0.003734311554580927, 0.011128699406981468, -0.1138133779168129], [-0.11183687299489975, -0.05082046613097191, 0.03192800283432007, -0.08126991242170334, 0.020417753607034683, -0.07147924602031708, 0.08914938569068909, 0.02319575846195221, -0.06801984459161758, 0.10892612487077713, 0.06907779723405838, -0.03185727074742317, -0.055615369230508804, 0.07440103590488434, -0.09080033004283905, 0.08480434864759445, -0.03018076904118061, -0.11476236581802368, -0.08195015043020248, -0.036167822778224945, 0.08809610456228256, -0.120547816157341, 0.10848922282457352, -0.07409399002790451, 0.09877672791481018, 0.11028444021940231, 0.06063941866159439, -0.10481402277946472, -0.08367560803890228, 0.009743023663759232, 0.04319499433040619, 0.0565834641456604, -0.12196674942970276, -0.014052428305149078, -0.02564653940498829, 0.08485391736030579, 0.06437717378139496, 0.030724123120307922, 0.047096941620111465, -0.11432524770498276, 0.06993395835161209, -0.01415733341127634, 0.08001499623060226, -0.10518228262662888, -0.009817925281822681, -0.0008054036879912019, 0.008611168712377548, 0.07901782542467117, -0.03498532250523567, 0.031345613300800323, -0.005388428457081318, -0.05591263994574547, 0.012486609630286694, 0.09329959005117416, 0.08764820545911789, -0.06121900677680969, 0.08985120058059692, 0.07496947050094604, -0.11908117681741714, -0.072059266269207, -0.07552957534790039, 0.10372644662857056, 0.028318803757429123, 0.06697539985179901, -0.05405483394861221, 0.03150520101189613, -0.04880049452185631, -0.009785347618162632, 0.07442472130060196, 0.046910010278224945, -0.09386669844388962, -0.052988797426223755, 0.06113981455564499, -0.03826393932104111, 0.08423628658056259, -0.05043581873178482, 0.02844785712659359, -0.0061577982269227505, 0.03265809640288353, -0.061488449573516846, 0.010788093321025372, -0.089723140001297, 0.038063034415245056, 0.10776621848344803, -0.11216190457344055, 0.03365899622440338, 0.005106564611196518, 0.10153567045927048, 0.11199307441711426, 0.0034391225781291723, 0.024712249636650085, 0.11491353809833527, 0.01477320957928896, -0.010323682799935341, -0.08671725541353226, 0.06768359243869781, -0.028123853728175163, 0.10460694879293442, 0.043867066502571106, -0.01634962484240532, 0.018724482506513596, 0.04097214341163635, -0.006181738339364529, 0.10410388559103012, -0.10798816382884979, 0.052439186722040176, -0.03646881878376007, 0.016333457082509995, 0.05586094409227371, -0.10158541798591614, -0.0890432819724083, -0.11429338157176971, -0.11477312445640564, 0.0034895469434559345, 0.035998839884996414, -0.07371082901954651, -0.0842166393995285, -0.07454529404640198, -0.10146460682153702, -0.00808837078511715, -0.04387764632701874, -0.0649876743555069, -0.09468595683574677, 0.033975109457969666, 0.1020212173461914, -0.026392929255962372, -0.017267640680074692, 0.01361428014934063, 0.07402077317237854, -0.04160730913281441, 0.02536199428141117, 0.06340198963880539, 0.005281802266836166, -0.0008964357548393309, -0.06604216247797012, -0.10104341059923172, -0.017946884036064148, 0.10555540770292282, 0.03013208694756031, -0.016343137249350548, 0.07697643339633942, -0.10021808743476868, 0.010859937407076359, 0.036163732409477234, 0.10075577348470688, 0.0007944798562675714, 0.11270205676555634, 0.023273469880223274, -0.10178596526384354, -0.09855327755212784, -0.05095968395471573, -0.023261429741978645, -0.0701916292309761, 0.07733660191297531, 0.10503171384334564, -0.0835530087351799, 0.015348517335951328, 0.0067398990504443645, 0.10021205991506577, -0.08234836906194687, -0.059525828808546066, 0.08005405217409134, -0.000483212701510638, 0.03249075636267662, 0.01246253214776516, -0.11157694458961487, 0.044053297489881516, 0.016857406124472618, -0.08877893537282944, -0.04840923845767975, 0.11392968147993088, -0.09933266788721085, 0.043762389570474625, 0.037633683532476425, -0.11173994839191437, -0.03619813919067383, 0.09804967790842056, -0.10248520225286484, 0.0604553148150444, 0.03584826737642288, -0.08746369928121567, 0.11735386401414871, -0.09072370082139969, -0.030861541628837585, -0.08450374752283096, -0.018574893474578857, 0.12319882959127426, -0.04791964218020439, -0.1200651302933693, -0.06373849511146545, 0.06478796154260635, -0.00879791472107172, -0.12133964151144028, -0.06534388661384583, 0.002444312907755375, -0.09223231673240662, 0.031602855771780014, -0.12014395743608475, -0.005808481480926275, -0.044710636138916016, -0.06691419333219528, -0.087464340031147, -0.025853978469967842, -0.014157054014503956, 0.01683436892926693, 0.08136345446109772, 0.10484626144170761, 0.0201400239020586, 0.008510220795869827, -0.08720781654119492, 0.06683304160833359, -0.10693326592445374, 0.045868780463933945, 0.10723858326673508, -0.0007628242019563913, -0.06530255079269409, -0.005291571840643883, -0.1172066405415535, -0.11474929749965668, -0.04683162644505501, -0.03395668789744377, -0.09807329624891281, -0.029040057212114334, 0.0392204150557518, 0.055365558713674545, 0.07172341644763947, 0.0834762305021286, 0.08010542392730713, -0.03875147923827171, 0.04600253701210022, 0.033401764929294586, -0.11241292953491211, 0.1094239205121994, 0.07377994060516357, 0.048549067229032516, 0.01728484407067299, 0.08496348559856415, -0.10438472777605057, 0.04127434641122818, 0.021297724917531013, 0.01161699928343296, 0.009205671958625317, -0.03701307252049446, -0.0021084605250507593, 0.10690000653266907, -0.06608666479587555, 0.11772419512271881, -0.034253235906362534, 0.09675706177949905, -0.08844009041786194, -0.11052393913269043, -0.042149703949689865, 0.0494389533996582, -0.00895644910633564, -0.08822768181562424, -0.06710465997457504, -0.0759599432349205, -0.06519032269716263, 0.06440313160419464, 0.059924960136413574, 0.02345026284456253, 0.07346951961517334, -0.10390135645866394, 0.06303012371063232, 0.07600195705890656, 0.026450760662555695, -0.10101260244846344, 0.007205209229141474, -0.0864931121468544, 0.0029786420054733753, -0.0029458932112902403, 0.014997751452028751, 0.12220233678817749, -0.01122213527560234, -0.09142472594976425, -0.052489008754491806, -0.11260644346475601, -0.034926168620586395, -0.09810685366392136, -0.08321547508239746, -0.04826689511537552, -0.04163830727338791, -0.10033616423606873, 0.12280920147895813, 0.05484892800450325, 0.09507320076227188, -0.11792156100273132, 0.05252865329384804, -0.012849691323935986, -0.08856575191020966, 0.11793773621320724, 0.09928720444440842, -0.06538499891757965, 0.0999152883887291, -0.10539496690034866, -0.027031484991312027, -0.04980331286787987, 0.02266988903284073, 0.05770951136946678, -0.014273514971137047, 0.07312915474176407, 0.1009972020983696, -0.0700712502002716, 0.10176282376050949, -0.06934170424938202, -0.014292026869952679, 0.12284814566373825, 0.01683460734784603, -0.013676140457391739, -0.02467937022447586, -0.03346148505806923, 0.011364529840648174, 0.015736712142825127, 0.04438607022166252, -0.0231284499168396, 0.01190384291112423, 0.11326152086257935, -0.09194879978895187, 0.03966794162988663, 0.11211051791906357, -0.11023595184087753, 0.013794980943202972, -0.10155338048934937, 0.014499782584607601, 0.07407937943935394, -0.12370399385690689, -0.11959747225046158, -0.08613447844982147, -0.11684178560972214, 0.12234680354595184, 0.10370372235774994, 0.05093402788043022, 0.08353748172521591, -0.0677390918135643, 0.10511074215173721, -0.09014798700809479, -0.10587365180253983, -0.05733492597937584, -0.0955563634634018, 0.08207269757986069, 0.09855840355157852, 0.04525276646018028, -0.06594794988632202, 0.08806727081537247, 0.10065187513828278, 0.0051977364346385, -0.02100778929889202, 0.09717743843793869, 0.07567909359931946, 0.10360798984766006, -0.04246964305639267, -0.024386774748563766, -0.10827093571424484, 0.034528277814388275, -0.05656363070011139, 0.08756884932518005, 0.0468716137111187, 0.09063062071800232, 0.04392794892191887, 0.01193792000412941, 0.08724932372570038, 0.04473184421658516, 0.10010101646184921, 0.06377518177032471, -0.115435391664505, -0.012799974530935287, -0.006398504599928856, -0.022858913987874985, 0.11441066116094589, 0.033183034509420395, 0.08990931510925293, -0.05168794095516205, 0.1048756018280983, -0.11020323634147644, 0.08457919955253601, 0.027695635333657265, 0.07818082720041275, -0.0399165078997612, -0.05678090453147888, 0.018516454845666885, -0.09120231866836548, 0.04744764417409897, 0.12040991336107254, 0.017803458496928215, -0.06655443459749222], [-0.07697132974863052, 0.030723005533218384, -0.0015870534116402268, 0.0035967924632132053, -0.09541551023721695, 0.08220797777175903, 0.10975251346826553, -0.042513247579336166, 0.09616538137197495, -0.08907075226306915, -0.07304287701845169, -0.10910951346158981, -0.02822289615869522, -0.028675153851509094, -0.033755723387002945, -0.06016058102250099, 0.01064884103834629, 0.05047469213604927, -0.09430044144392014, -0.07052586227655411, -0.066327765583992, -0.11201614141464233, -0.012064717710018158, 0.10908055305480957, -0.1139170229434967, -0.09819915890693665, -0.08164258301258087, 0.04393341392278671, -0.10355666279792786, 0.014600233174860477, -0.08461353927850723, -0.0992264375090599, 0.08119001239538193, 0.007353424094617367, -0.0948597863316536, -0.07209140807390213, 0.06629834324121475, 0.11605153232812881, 0.07482787221670151, 0.08519510179758072, -0.06743577867746353, 0.08607436716556549, 0.05720129609107971, -0.051663849502801895, 0.11722084879875183, 0.09258810430765152, 0.07520606368780136, 0.071456179022789, -0.0988246500492096, 0.06898971647024155, -0.00393673637881875, -0.02380508929491043, -0.020148830488324165, -0.057634297758340836, -0.054367948323488235, -0.06635110825300217, 0.07645072788000107, -0.010447295382618904, -0.04249535873532295, 0.04296969994902611, 0.02156011573970318, -0.09484697878360748, -0.11347922682762146, -0.09878818690776825, 0.012631773948669434, 0.053890228271484375, 0.07251520454883575, 0.06224469467997551, -0.08994120359420776, 0.04989812523126602, -0.06676334142684937, -0.05114618316292763, -0.11109057813882828, -0.12054500728845596, -0.0679563358426094, 0.01872788928449154, -0.005729603581130505, -0.02594011276960373, -0.08008552342653275, -0.049673132598400116, 0.05447661504149437, -0.08922622352838516, -0.08742592483758926, -0.10267075896263123, 0.12221493571996689, -0.01662330888211727, -0.03339341655373573, -0.038716141134500504, -0.04324338957667351, 0.008613087236881256, 0.08623302727937698, 0.07466045022010803, 0.044173914939165115, 0.02531023509800434, -0.07419458776712418, 0.0033858874812722206, 0.08599964529275894, -0.06627804040908813, -0.0631856843829155, 0.07948680222034454, 0.10755490511655807, 0.09311840683221817, -0.11878089606761932, -0.0034140446223318577, 0.04609285295009613, -0.03518661484122276, 0.039736080914735794, 0.11551619321107864, 0.1192106157541275, 0.09442860633134842, 0.022220704704523087, 0.09095902740955353, 0.09592248499393463, -0.0473782904446125, -0.021366938948631287, 0.06572021543979645, -0.09270720183849335, -0.07865265011787415, -0.052630357444286346, -0.028707081452012062, 0.10619166493415833, 0.05207514017820358, -0.03798975795507431, 0.12264759838581085, 0.0027259401977062225, -0.021776419132947922, -0.0046315863728523254, -0.008356375619769096, -0.06290638446807861, -0.06507385522127151, -0.11718875169754028, 0.03531565144658089, -0.006994348019361496, -0.013475721701979637, -0.11409954726696014, -0.0230393223464489, 0.050659358501434326, -0.08886867016553879, 0.10245268791913986, 0.015923455357551575, 0.1126125156879425, 0.10761638730764389, 0.10862822830677032, 0.05416037514805794, 0.08122622966766357, -0.09534689038991928, 0.11002873629331589, 0.11821682006120682, 0.09696223586797714, -0.02443356066942215, 0.108375683426857, 0.0773545503616333, 0.06985994428396225, -0.10574740916490555, 0.00990726426243782, -0.0015165026998147368, 0.007438626606017351, -0.07414436340332031, -0.06647332012653351, -0.07821015268564224, -0.05644017085433006, -0.061850983649492264, 0.02723088301718235, -0.019470324739813805, -0.012843351811170578, -0.12037575989961624, -0.12108369916677475, 0.09827503561973572, -0.0033617471344769, -0.047833096235990524, -0.1049303412437439, -0.08792784810066223, 0.025822950527071953, 0.02251625992357731, 0.1165071353316307, -0.058879304677248, -0.02764495089650154, -0.03002488799393177, 0.07429946213960648, 0.0536525696516037, 0.06923626363277435, 0.006831794045865536, -0.11429787427186966, 0.012317919172346592, 0.0432734340429306, 0.10809607058763504, 0.030452854931354523, 0.005930366925895214, 0.08105266094207764, 0.10893900692462921, 0.06810754537582397, -0.09789273142814636, -0.06389399617910385, -0.05430784076452255, 0.09869742393493652, -0.0430956706404686, 0.07932688295841217, 0.00022503524087369442, -0.07197912782430649, 0.03354662284255028, -0.11056077480316162, -0.00820891372859478, 0.05212895944714546, -0.0607372485101223, -0.014368277043104172, 0.10148956626653671, 0.03086526319384575, -0.005248348694294691, 0.03319825977087021, 0.01928909868001938, 0.11562196910381317, 0.044717930257320404, -0.0718412771821022, -0.09373228996992111, 0.04184266924858093, -0.007224552799016237, 0.029362155124545097, -0.06747068464756012, 0.009570249356329441, -0.05716609209775925, 0.0883931815624237, 0.06460743397474289, -0.030074257403612137, -0.06672267615795135, -0.0946807786822319, 0.06986046582460403, 0.0217670276761055, 0.11474642902612686, 0.040400534868240356, 0.0381435751914978, 0.0883982926607132, -0.07633340358734131, 0.08948272466659546, -0.038719646632671356, -0.10032569617033005, 0.11204499751329422, -0.008878818713128567, -0.07198557257652283, -0.09287012368440628, 0.08980780094861984, 0.0348319374024868, -0.08886589109897614, 0.0021327228751033545, -0.08057224750518799, 0.0500795803964138, 0.1213705912232399, -0.08533662557601929, 0.01307680644094944, 0.11525378376245499, -0.08929859101772308, 0.023796677589416504, 0.025973491370677948, -0.012209214270114899, 0.10745912045240402, -0.03669371455907822, 0.07138079404830933, -0.02746053785085678, -0.10820011049509048, 0.0883212760090828, -0.08998705446720123, 0.07513589411973953, 0.08010551333427429, 0.10122592002153397, 0.06937780231237411, -0.12181925028562546, -0.036239344626665115, 0.07287058234214783, 0.0006559918401762843, -0.11163157969713211, -0.08067023009061813, 0.03171589598059654, -0.0981905460357666, 0.07721304148435593, 0.09778685122728348, -0.11568784713745117, 0.09729541093111038, -0.07737555354833603, -0.05995184928178787, -0.0027468937914818525, -0.052207477390766144, -0.02350684255361557, 0.007695942651480436, -0.1081639751791954, 0.029739301651716232, 0.08919397741556168, 0.01485475804656744, 0.021853668615221977, 0.08274968713521957, 0.03459508344531059, 0.088938869535923, 0.0007541042286902666, 0.05257139354944229, -0.03676493838429451, -0.05522331967949867, 0.0167988333851099, -0.049967579543590546, -0.12209147959947586, 0.06027882918715477, 0.08004710078239441, -0.08098548650741577, -0.10729364305734634, -0.11067873984575272, -0.06688085943460464, -0.11874169111251831, -0.04184587672352791, 0.04942072182893753, 0.07286786288022995, 0.0909433588385582, -0.11191926151514053, -0.08418657630681992, -0.09880509227514267, -0.09302335977554321, -0.05422750860452652, -0.060634564608335495, -0.03893241286277771, 0.03085928037762642, 0.09662404656410217, 0.06132763996720314, -0.07497897744178772, -0.042247552424669266, 0.12141197919845581, 0.06033703312277794, 0.08933117240667343, -0.09626974165439606, 0.09536930173635483, 0.03714044764637947, 0.10279745608568192, -0.12185536324977875, 0.053028322756290436, -0.09800506383180618, -0.08828534930944443, 0.11961495131254196, -0.07982465624809265, -0.072382353246212, -0.11607488244771957, 0.011734467931091785, -0.04463256895542145, -0.06481323391199112, -0.003491777228191495, -0.01899564452469349, 0.008413592353463173, -0.08123200386762619, -0.04643837735056877, 0.10993239283561707, 0.08076467365026474, -0.06380511075258255, 0.057109180837869644, -0.030426163226366043, 0.08722880482673645, 0.12104381620883942, 0.01015998050570488, 0.009056251496076584, -0.002691528992727399, -0.07891467213630676, -0.003335895948112011, 0.045000698417425156, 0.10487453639507294, 0.06612727046012878, 0.003723586443811655, 0.05082574859261513, -0.028859736397862434, 0.015144138596951962, -0.115614153444767, -0.11973816156387329, 0.10952665656805038, -0.07589095085859299, 0.047689683735370636, 0.020222850143909454, 0.07885348051786423, 0.11769849807024002, 0.005718697793781757, 0.12323996424674988, 0.06946223229169846, -0.11392682790756226, 0.027608221396803856, 0.01222260668873787, -0.0413656085729599, 0.09089856594800949, 0.11078160256147385, -0.12161771953105927, -0.051777057349681854, 0.0026341828051954508, -0.10500580817461014, 0.11844101548194885, 0.013114778324961662], [-0.06331000477075577, 0.04431649670004845, -0.050056543201208115, 0.10186772793531418, 0.060454361140728, -0.10640761256217957, 0.0446232371032238, 0.0012078721774742007, -0.01021894346922636, 0.002765482757240534, 0.04454207420349121, -0.009126055054366589, -0.08692866563796997, -0.0248124897480011, -0.08367399871349335, 0.05667689070105553, -0.010827260091900826, 0.07622852921485901, 0.009862152859568596, 0.01600806973874569, 0.007309694308787584, -0.07639912515878677, -0.08660520613193512, -0.081626757979393, -0.11770710349082947, -0.02223093807697296, -0.09765920042991638, -0.031179746612906456, 0.09911015629768372, 0.022683383896946907, -0.09876251965761185, 0.08886831253767014, -0.12304486334323883, 0.022052137181162834, 0.07146917283535004, -0.03358076140284538, -0.05322035029530525, -0.056211717426776886, -0.06401573866605759, -0.07625927776098251, -0.024195538833737373, 0.09744487702846527, -0.018209971487522125, 0.12523937225341797, -0.039019033312797546, 0.02899564616382122, 0.11906342208385468, -0.00010235013905912638, -0.007088941056281328, 0.12154113501310349, -0.11538628488779068, -0.013260194100439548, -0.07866072654724121, 0.00552941020578146, 0.037239961326122284, 0.03575042262673378, 0.053427305072546005, 0.003979281056672335, -0.11274256557226181, -0.1136801466345787, 0.10545556247234344, -0.018316375091671944, 0.02574068494141102, -0.1234990730881691, -0.12133357673883438, 0.07173836976289749, 0.1179521307349205, -0.10137451440095901, -0.07085126638412476, 0.04440751299262047, -0.013149053789675236, 0.024797698482871056, -0.043405480682849884, -0.11482100188732147, 0.1211574375629425, -0.033001672476530075, -0.05299631133675575, -0.08530701696872711, -0.1218438446521759, 0.1212826818227768, 0.022712375968694687, 0.07845047861337662, -0.03230035677552223, 0.07742282748222351, 0.07214687764644623, -0.00027344690170139074, 0.12246417999267578, 0.0635099932551384, 0.015741532668471336, -0.04097528010606766, 0.010217048227787018, -0.006229588761925697, 0.10022808611392975, -0.09098967164754868, 0.023859046399593353, 0.04430673271417618, 0.10268689692020416, -0.08661651611328125, -0.1117684468626976, 0.09470133483409882, -0.08603272587060928, -0.11495357006788254, -0.11861853301525116, -0.12102872878313065, -0.0442504808306694, -0.11217497289180756, 0.04167461767792702, -0.0801306739449501, -0.033213093876838684, -0.11830024421215057, 0.08448663353919983, -0.062109898775815964, 0.08298852294683456, 0.04944390803575516, -0.09450937062501907, 0.02818463370203972, -0.10944494605064392, 0.09794458001852036, 0.07405099272727966, 0.07852472364902496, 0.11119820177555084, -0.04664655029773712, -0.10048788785934448, 0.07817720621824265, 0.05686157941818237, -0.05925539880990982, -0.08281777054071426, 0.0900326818227768, 0.0031368588097393513, 0.09728571772575378, -0.008438929915428162, -0.08213537931442261, -0.12321294844150543, 0.06114121526479721, -0.0194819625467062, 0.08619699627161026, 0.013336257077753544, -0.06245408579707146, 0.02903270535171032, -0.03260428458452225, -0.08684954792261124, 0.12148534506559372, -0.04103514924645424, -0.08917191624641418, -0.07498916983604431, 0.0236967746168375, 0.019038213416934013, 0.06425971537828445, 0.007782781030982733, -0.0734902173280716, 0.12241637706756592, -0.09179413318634033, -0.034837715327739716, 0.009818129241466522, 0.11730548739433289, 0.11140447854995728, 0.10451662540435791, 0.09219253808259964, 0.005013846326619387, 0.1173817589879036, -0.05698157101869583, 0.09366603940725327, 0.040191005915403366, -0.11414383351802826, -0.07449346035718918, 0.06734568625688553, -0.05088108032941818, -0.11104805022478104, 0.08830589056015015, 0.07805133610963821, 0.09140938520431519, -0.06004524976015091, 0.002987669548019767, -0.055699631571769714, -0.09796793013811111, -0.03318178281188011, 0.10867328941822052, 0.002179771661758423, -0.059553734958171844, -0.03731612488627434, -0.11685994267463684, -0.09103431552648544, -0.015520768240094185, 0.03898996114730835, 0.010304753668606281, -0.09712193161249161, 0.013978695496916771, 0.09951765835285187, -0.025092830881476402, 0.07697941362857819, 5.6557939387857914e-05, -0.09920670837163925, 0.07793016731739044, 0.006832850631326437, -0.11040317267179489, 0.0055739604867994785, -0.0848645567893982, -0.11029486358165741, 0.028815126046538353, -0.029374418780207634, -0.06710734218358994, 0.12241840362548828, 0.07278120517730713, -0.09765391051769257, -0.09104832261800766, 0.10229814052581787, -0.017514431849122047, -0.02135062776505947, -0.031924404203891754, -0.0025637398939579725, 0.11153718084096909, 0.08301976323127747, 0.10381945967674255, 0.052206553518772125, -0.11837209761142731, 0.10740247368812561, -0.10470973700284958, -0.07053851336240768, 0.01998806558549404, 0.040177639573812485, 0.09351970255374908, 0.007680214941501617, 0.10558805614709854, 0.05950381979346275, 0.11972559988498688, -0.032215338200330734, 0.10865747183561325, -0.030319668352603912, -0.033143702894449234, 0.019877808168530464, 0.0375448539853096, -0.01946367137134075, -0.04956033080816269, -0.0741259828209877, -0.0026615490205585957, -0.06519259512424469, -0.04958808422088623, -0.02438388764858246, 0.07644998282194138, 0.07978478819131851, -0.038093484938144684, 0.0825730487704277, 0.1161520853638649, -0.059373512864112854, -0.08445999026298523, -0.0027246717363595963, -0.10284443944692612, -0.07912740856409073, 0.04882386326789856, 0.01698519103229046, 0.055508825927972794, -0.026804346591234207, 0.06076176092028618, 0.104661725461483, 0.031385909765958786, 0.10026225447654724, -0.06838994473218918, 0.10289984196424484, -0.013867557048797607, 0.11323145776987076, 0.0026945029385387897, -0.12370432168245316, 0.015479933470487595, 0.09012993425130844, -0.11169072985649109, 0.07879278808832169, -0.004320540931075811, -0.05963233858346939, -0.03465009853243828, -0.01802721433341503, 0.06115584447979927, -0.003665573662146926, -0.04938501864671707, -9.165529627352953e-05, 0.08780556172132492, 0.04147813469171524, -0.05702605098485947, -0.10646577179431915, 0.025634000077843666, 0.021821657195687294, -0.10510019212961197, 0.0527125783264637, 0.05773768201470375, -0.07207062095403671, -0.06996813416481018, 0.10315829515457153, -0.10595341771841049, 0.02564917877316475, 0.12247459590435028, -0.03392096981406212, -0.08310585469007492, 0.10744054615497589, -0.012132472358644009, -0.08511113375425339, -0.07393598556518555, -0.07097627222537994, 0.0020607251208275557, -0.02757914364337921, 0.11366007477045059, -0.03896281495690346, 0.00960635021328926, 0.02476375363767147, -0.08446506410837173, 0.026525018736720085, -0.06264898926019669, -0.04178941622376442, -0.030348047614097595, -0.08388488739728928, -0.024470780044794083, 0.03989093378186226, 0.11487700045108795, 0.12160715460777283, -0.04544716700911522, -0.09148912131786346, 0.014462579041719437, -0.0703992024064064, 0.07984107732772827, 0.12071283161640167, -0.05079573392868042, 0.07233486324548721, 0.08356647193431854, -0.03878273069858551, 0.008985241875052452, 0.12293177843093872, 0.12262465059757233, 0.057563893496990204, 0.07593312859535217, -0.07799962162971497, -0.038178324699401855, 0.04530308023095131, -0.08789172768592834, 0.0051726377569139, -0.02192041091620922, -0.06290935724973679, 0.024550441652536392, 0.06258568167686462, -0.010694642551243305, -0.007438150700181723, -0.095238596200943, -0.021032890304923058, -0.04055480659008026, 0.07437706738710403, -0.10660573840141296, 0.11125243455171585, 0.10114451497793198, 0.019246865063905716, 0.02315700612962246, 0.02839224599301815, 0.07900595664978027, -0.11179673671722412, -0.02480030246078968, 0.07514555007219315, -0.062254030257463455, 0.08285336941480637, 0.0030943069141358137, -0.061463549733161926, 0.0006785677978768945, -0.028478974476456642, 0.01851472817361355, 0.020645810291171074, 0.04163121059536934, 0.0014979297993704677, 0.04941517114639282, -0.029857520014047623, 0.01120943296700716, 0.07748252153396606, -0.0869278833270073, -0.08202195167541504, 0.1221950426697731, -0.005813430063426495, 0.07337247580289841, 0.04455110430717468, 0.000773070496506989, -0.12165035307407379, 0.11252260953187943, 0.0748647153377533, 0.05728504806756973, -0.000237896922044456, -0.0004668707260861993, 0.12081161141395569, -0.028366874903440475, 0.053394678980112076, 0.018385425209999084, 0.08573539555072784, 0.12053686380386353], [0.09738896787166595, 0.08379966020584106, 0.1205831915140152, 0.11915554106235504, -0.10281645506620407, -0.017048168927431107, -0.003933181054890156, -0.02654990181326866, -0.011099367402493954, 0.0341121107339859, -0.08089305460453033, 0.050093986093997955, -0.09177961945533752, 0.0261534471064806, -0.019958259537816048, -0.040977634489536285, 0.10308521240949631, 0.08717301487922668, 0.07077095657587051, -0.045005183666944504, -0.12447838485240936, -0.07428930699825287, 0.10640127956867218, 0.07404541224241257, -0.10930656641721725, -0.052494511008262634, -0.015796102583408356, -0.03037693165242672, -0.056139059364795685, -0.03607869893312454, -0.11918649077415466, -0.06117178872227669, -0.10229645669460297, 0.005974139086902142, -0.0032492815516889095, 0.0814010500907898, -0.030077537521719933, -0.023726999759674072, -0.06111602485179901, 0.08447784185409546, -0.09179271012544632, -0.030430834740400314, 0.0991048812866211, -0.026152092963457108, 0.05781150981783867, -0.10193874686956406, -0.07676044851541519, 0.037437256425619125, 0.004266911186277866, 0.016899773851037025, -0.05802588164806366, -0.11599913984537125, 0.1065051332116127, 0.12081117182970047, -0.014987098053097725, -0.09133019298315048, -0.048390086740255356, 0.008557301945984364, 0.0911576896905899, 0.01795191317796707, -0.11045686900615692, 0.07255399972200394, 0.12250284105539322, 0.03201545029878616, 0.10645154863595963, 0.006662258878350258, 0.08752832561731339, -0.034566689282655716, 0.005297344643622637, -0.1000877097249031, 0.011567008681595325, -0.07750721275806427, 0.012273053638637066, -0.0930437296628952, -0.0196251068264246, 0.09466033428907394, 0.011181659996509552, -0.10517460107803345, -0.01050491351634264, -0.11252551525831223, -0.12117481976747513, 0.015566334128379822, 0.04196735844016075, -0.01135781966149807, -0.08343944698572159, -0.07084498554468155, -0.0915541797876358, -0.02545519359409809, 0.023028220981359482, -0.10209135711193085, -0.07198961824178696, -0.030228177085518837, -0.05854641646146774, 0.09496234357357025, -0.023483294993638992, -0.11534847319126129, -0.00946760457009077, 0.0006852112710475922, 0.026477545499801636, 0.07902750372886658, 0.09567613899707794, -0.011023313738405704, -0.02187930978834629, -3.8455415051430464e-05, -0.03371962159872055, 0.015208439901471138, -0.09801900386810303, 0.02242320403456688, 0.09775589406490326, 0.0804167091846466, -0.0697484090924263, 0.015396271832287312, -0.06450218707323074, -0.021998554468154907, -0.06379763782024384, -0.0932314470410347, -0.09633457660675049, -0.0988396480679512, -0.09409250319004059, -0.11493117362260818, 0.06263739615678787, -0.027493001893162727, 0.11741431802511215, 0.05961083620786667, -0.005961412563920021, -0.0806596502661705, 0.08760876208543777, -0.021560264751315117, -0.09009233117103577, 0.018790822476148605, -0.0003108882228843868, -0.041035328060388565, -0.06017738953232765, 0.06613907217979431, -0.06001679599285126, -0.025025401264429092, -0.047232065349817276, 0.008277511224150658, 0.06571995466947556, 0.09458595514297485, -0.07844387739896774, -0.03684350848197937, -0.04692194610834122, -0.07929930835962296, -0.05810151249170303, -0.09955079108476639, 0.1099720224738121, 0.04936347156763077, 0.0006865647155791521, 0.07980707287788391, -0.054771825671195984, 0.07627508044242859, -0.07054536789655685, 0.06113268807530403, -0.12155469506978989, -0.1226336807012558, 0.01686558872461319, 0.026432188227772713, -0.030254459008574486, -0.09883208572864532, 0.10834895819425583, -0.026121921837329865, -0.08915715664625168, -0.10982216149568558, 0.07713141292333603, 0.04156294837594032, 0.048411428928375244, -0.05750555545091629, 0.01010117307305336, 0.09217070788145065, 0.0912712812423706, 0.09673402458429337, 0.018165715038776398, 0.02103910967707634, -0.02308870106935501, 0.07865093648433685, -0.08987974375486374, -0.05767309293150902, -0.04411638155579567, 0.018052082508802414, -0.0930132269859314, 0.00036444514989852905, -0.12377987802028656, 0.0007989141158759594, 0.03178994730114937, 0.10125505924224854, 0.028552021831274033, 0.003222801722586155, -0.03883182629942894, -0.0633801743388176, 0.03397231176495552, 0.03645801544189453, -0.11256135255098343, -0.0007941139629110694, -0.07399606704711914, -0.07748176157474518, 0.10947846621274948, -0.12103016674518585, -0.101960688829422, 0.06985355913639069, -0.10007859021425247, -0.10826680809259415, -0.022699639201164246, 0.005728681106120348, -0.03081735596060753, -0.06533016264438629, 0.004405071027576923, 0.09025535732507706, -0.09867554903030396, -0.030253618955612183, -0.05270783230662346, -0.07197241485118866, 0.0085353534668684, 0.075103260576725, -0.09807052463293076, -0.08878133445978165, 0.09548871219158173, 0.11171085387468338, 0.09587743878364563, 0.06008139252662659, 0.05563465133309364, -0.10557103157043457, -0.051812201738357544, -0.09137462079524994, 0.005682424176484346, 0.08205118030309677, -0.11753683537244797, 0.07673309743404388, -0.10807064175605774, 0.016382602974772453, -0.08992913365364075, 0.1018391102552414, 0.04355688765645027, -0.014896724373102188, -0.003946376033127308, 0.10667742043733597, -0.007884783670306206, -0.04209938645362854, 0.04506167024374008, 0.05212489143013954, 0.07084719091653824, -0.05765322595834732, -0.05955580249428749, 0.08023644238710403, 0.10626492649316788, -0.0973673164844513, 0.053045108914375305, 0.08006124198436737, 0.11962785571813583, 0.02222423627972603, 0.020779483020305634, 0.07864060997962952, -0.08801398426294327, -0.05263025313615799, -0.07049703598022461, -0.0904138833284378, 0.018516648560762405, 0.05246347188949585, 0.04391160607337952, 0.016907377168536186, 0.03999817743897438, -0.12329437583684921, 0.0974341630935669, -0.07433446496725082, -0.0033316719345748425, -0.10522278398275375, -0.12076818943023682, -0.0911886990070343, -0.004686929285526276, -0.024179324507713318, 0.06227986142039299, 0.059231989085674286, 0.05537670850753784, -0.03768697753548622, -0.08049946278333664, -0.003575804177671671, -0.0038139093667268753, 0.10496754944324493, 0.10612871497869492, -0.006714991293847561, -0.0011335461167618632, -0.11437225341796875, -0.016206974163651466, -0.023020721971988678, -0.02610025368630886, -0.03621505945920944, 0.05522855743765831, 0.02888835407793522, 0.09727241843938828, -0.11116649210453033, -0.09463521093130112, 0.006504688411951065, 0.04594559967517853, -0.04851763695478439, 0.06363164633512497, -0.11795812845230103, -0.1214606985449791, 0.0790603756904602, 0.07049357146024704, -0.022849643602967262, -0.04818093776702881, -0.08242273330688477, 0.012374155223369598, -0.10085625946521759, 0.03408428281545639, 0.08109050989151001, 0.0933375209569931, -0.12104283273220062, -0.08080331981182098, 0.014626470394432545, -0.037437036633491516, 0.1133963093161583, 0.025296345353126526, 0.10641969740390778, 0.12107722461223602, -0.09543211758136749, 0.06156385317444801, 0.011115068569779396, 0.06659586727619171, -0.0663922131061554, -0.027794986963272095, -0.02464464120566845, -0.046371497213840485, 0.010808153077960014, 0.019044701009988785, -0.09810452908277512, -0.04905558377504349, 0.0799025222659111, 0.045587632805109024, -0.0814836248755455, -0.123541459441185, 0.07548003643751144, 0.11843480914831161, -0.11533812433481216, -0.026413660496473312, 0.10975072532892227, -0.08464299142360687, -0.08591409027576447, -0.04677080735564232, 0.07723508775234222, -0.03167186677455902, 0.06095852702856064, -0.031082622706890106, -0.11542442440986633, -0.10575961321592331, -0.06534957885742188, -0.06804684549570084, -0.028787575662136078, -0.10635361075401306, 0.08457169681787491, -0.058659981936216354, 0.02082236483693123, -0.04054182022809982, 0.11003980785608292, 0.07958044111728668, 0.07828027755022049, 0.017872730270028114, -0.10970984399318695, -0.023091498762369156, 0.0641845315694809, 0.007901418022811413, -0.032513853162527084, 0.050044890493154526, -0.09753680229187012, 0.10984665155410767, -0.07095466554164886, 